tree
version=v3
num_class=1
num_tree_per_iteration=1
label_index=0
max_feature_idx=7
objective=binary sigmoid:1
feature_names=0 1 2 3 4 5 6 xy_same_entity
feature_infos=[0:1] [0:1] [0:1] [0:1] [0.0063965884861407751:1] [0.0063965884861407751:1] [0.30878552971576229:1] [0:0.92052578613350988]
tree_sizes=3330 3347 3330 3374 3364 3347 3362 3364 3375 3370 3376 3391 3409 3379 3396 3382 3389 3387 3375 3378 3362 3366 3370 3383 3404 3387 3393 3384 3386 3391 3393 3397 3420 3431 3418 3389 3397 3410 3405 3386 3395 3393 3413 3402 3403 3392 3403 3391 3392 3400 3397 3396 3388 3401 3409 3387 3421 3410 3395 3414 3399 3396 3409 3419 3398 3422 3407 3367 3408 3405 3425 3380 3371 3380 3393 3399 3428 3399 3418 3382 3400 3398 3408 3402 3409 3400 3391 3440 3406 3380 3426 3385 3415 3402 3443 3397 3407 3376 3415 3358 3427 3380 3436 3383 3388 3373 3385 3463 3433 3365 3384 3406 3389 3433 3405 3417 3423 3409 3438 3443 3457 3400 3388 3375 3408 3386 3405 3414 3411 3384 3441 3381 3383 3450 3407 3378 3437 3368 3385 3423 3439 3389 3372 3438 3414 3397 3381 3382 3448 3399 3389 3440 3419 3444 3374 3420 3399 3434 3411 3484 3447 3420 3395 3390 3406 3425 3448 3421 3367 3442 3391 3386 3373 3387 3390 3463 3385 3382 3432 3409 3388 3404 3371 3361 3370 3390 3399 3385 3391 3399 3438 3412 3453 3399 3458 3450 3407 3366 3412 3369

Tree=0
num_leaves=31
num_cat=0
split_feature=7 7 6 7 4 7 4 7 6 0 2 1 6 6 4 4 7 4 6 4 5 7 6 7 6 6 6 4 4 7
split_gain=80867.1 10953 992.678 479.307 430.987 343.244 269.291 269.234 261.555 220.828 2901.51 2240.79 727.958 400.069 299.363 217.407 230.676 206.826 200.106 186.662 179.513 177.996 198.005 175.05 152.588 134.564 131.627 120.925 119.673 118.62
threshold=1.0000000180025095e-35 0.3094086856376343 0.84632766753173416 0.28258534002864805 0.90645833333333348 0.32181471146637913 0.29185103244837762 0.10216608497830386 0.68600538246723575 1.0000000180025095e-35 1.0000000180025095e-35 1.0000000180025095e-35 0.85598921602289824 0.65845517237177975 0.14523021781086301 0.66018867924528313 0.27092488216023058 0.13104143492769751 0.61252896887643005 0.35624311132105185 0.26695402298850585 0.22258520037616808 0.86963411926826573 0.086705988502634765 0.90231595787888708 0.64409340075866583 0.66769365551745719 0.59471109040074566 0.2469862018881627 0.21313523080114019
decision_type=2 2 2 2 2 2 2 2 2 2 2 2 2 2 2 2 2 2 2 2 2 2 2 2 2 2 2 2 2 2
left_child=9 2 3 7 15 -3 -5 8 -2 -1 -11 12 19 14 -13 16 21 -9 -19 -12 28 -4 -23 -10 -17 -8 -27 -20 -15 -6
right_child=1 5 4 6 29 -7 25 17 23 10 11 13 -14 20 -16 24 -18 18 27 -21 -22 22 -24 -25 -26 26 -28 -29 -30 -31
leaf_value=-4.0024407981470249 -3.140700094328194 -0.50995929126048178 -0.99283226297929961 -0.032359367213564028 -0.44098096628038919 0.83793295079893593 -3.2675363883967683 0.20655718496809072 -0.42998880630549463 -3.99959175779103 -3.7165335637280554 -0.66557753225395988 -0.72877570016860105 -1.4302753640211203 -2.7867127154967068 -2.9904412830810956 0.09811279248847482 -2.3666858216061271 -1.9472806162804273 -2.9227664183904722 -1.9614834428079924 -2.5795407707582276 -0.81295565983090601 -2.9307052005945669 -1.3350099775720157 0.24722383214793453 -1.6351380977125651 -0.26110925760025516 0.21854863221342846 1.0369037258547422
leaf_weight=2824.6044608987868 3.8294581733644 2.118837263435128 5.715028949081896 1.7883764058351506 1.2635268084704869 17.436669956892729 0.40821635350585017 0.42765522748231788 0.69979946315288521 772.18982984125614 50.01622274145484 0.71923833712935348 0.85531045496463676 1.049699194729327 8.8835654072463495 1.1857713125646105 1.3412823043763626 12.654706958681343 77.75549590587616 3.1490975841879836 3.5767528116703033 1.82725415378809 0.97194369882345188 0.46653297543525696 1.0496991947293282 0.44709410145878825 2.1965927593410015 0.42765522748231788 0.75811608508229245 0.95250482484698284
leaf_count=145307 197 109 294 92 65 897 21 22 36 39724 2573 37 44 54 457 61 69 651 4000 162 184 94 50 24 54 23 113 22 39 49
internal_value=-3.90042 -1.49659 -1.86742 -1.97774 -1.08779 0.691889 -1.00675 -2.02657 -2.74138 -3.98905 -3.94407 -3.32281 -3.62296 -2.24096 -2.62784 -1.32276 -1.1208 -1.98744 -1.99777 -3.66952 -1.55099 -1.31282 -1.96614 -1.43028 -2.21311 -1.57772 -1.3168 -1.93806 -0.738833 0.19425
internal_weight=0 134.964 115.409 101.102 14.307 19.5555 4.84028 96.2613 4.99579 3665.8 841.198 69.008 54.0206 14.9874 9.6028 12.091 9.85551 91.2655 90.8379 53.1653 5.38457 8.51423 2.7992 1.16633 2.23547 3.0519 2.64369 78.1832 1.80782 2.21603
internal_count=195524 6943 5937 5201 736 1006 249 4952 257 188581 43274 3550 2779 771 494 622 507 4695 4673 2735 277 438 144 60 115 157 136 4022 93 114
is_linear=0
shrinkage=1


Tree=1
num_leaves=31
num_cat=0
split_feature=7 7 2 3 6 3 3 6 6 3 4 6 5 7 4 3 3 3 6 3 6 6 3 6 6 3 7 4 3 6
split_gain=6004.77 247.487 163.142 349.321 85.8924 84.1299 74.653 67.6249 60.7211 45.0865 40.1611 29.7929 26.6605 62.2323 33.907 43.0735 33.694 33.2514 33.0456 21.9379 27.0488 30.8076 28.1381 21.104 20.7694 80.7388 20.4628 20.0676 20.0127 19.1005
threshold=1.0000000180025095e-35 0.28058998765008591 1.0000000180025095e-35 0.35145692567567571 0.8211815315779577 0.48089094449853947 0.43666428953467645 0.8244186693374328 0.629647822506048 0.29185103244837768 0.32104428587609019 0.6266475264092316 0.26425937974409031 0.16593897406988931 0.19248412138320395 0.30034965034965039 0.27796173657100814 0.34498016478486426 0.58192336864774463 0.61027955095751718 0.8211815315779577 0.7373223431782191 0.65485893416927909 0.62892460538476624 0.65396920746093834 0.4529775943396227 0.21923140058238275 0.20902306648575311 0.32461836409204836 0.60593782575879773
decision_type=2 2 2 2 2 2 2 2 2 2 2 2 2 2 2 2 2 2 2 2 2 2 2 2 2 2 2 2 2 2
left_child=2 4 19 7 5 12 -5 9 -8 -4 -9 -7 13 17 -15 27 29 18 -2 -1 21 -21 -23 28 25 -10 -13 -16 -17 -14
right_child=1 -3 3 6 -6 11 8 10 24 -11 -12 26 16 14 15 23 -18 -19 -20 20 -22 22 -24 -25 -26 -27 -28 -29 -30 -31
leaf_value=-0.10178890347199579 0.040555472216936145 0.12299033266578492 -0.082340325301459391 0.07810863596000403 0.18174104668731228 0.69740943852225101 1.3001091454777385 1.0049828346063008 1.2928363056235725 -0.006558467876077956 0.12751393912353542 0.37477998115019973 0.28109277935266047 0.20149530754339753 0.70285010585097574 0.14760305770653687 0.22988558360544148 0.080657622231619722 0.32462147762097843 -0.040297980568057425 -0.047873717700896407 0.15003769631474079 0.98277384947349966 0.25366396125961066 0.23120592499501008 -0.016780913014732373 0.27771237802073373 0.44735326946749754 0.47157250719619503 0.028227898702584572
leaf_weight=2524.9816552475095 5.2679465450346497 277.62354613095522 686.71426696144044 62.176084786653519 197.11323996633291 2.3455862775444976 0.57020123302936809 0.88372156955301706 0.85856955684721725 88.64247714728117 1.2729477938264606 54.992310218513012 3.8435631617903736 13.903530411422251 4.0550035610795048 2.3160917386412612 212.34349339827895 17.867578081786633 18.395553048700094 1.6251239776611355 16.679479673504829 0.79406840726733208 0.82979545369744301 21.743260473012924 23.684346552938223 1.0421801488846538 35.892661064863205 12.708866402506827 10.789128854870794 13.407825298607348
leaf_count=143186 64 1359 37211 2209 1410 25 25 18 25 4182 31 484 51 122 47 26 2050 182 204 92 944 45 47 199 521 45 326 144 114 136
internal_value=0 0.201595 -0.0882073 -0.0507122 0.2364 0.261463 0.137734 -0.0721212 0.279476 -0.0736766 0.487068 0.345527 0.238182 0.279396 0.340102 0.377441 0.218966 0.183631 0.261383 -0.100964 0.00354486 0.267515 0.575566 0.31408 0.25673 0.574774 0.336446 0.509155 0.414317 0.0845655
internal_weight=0 904.609 3410.75 865.845 626.986 429.872 88.3314 777.513 26.1553 775.357 2.15667 93.2306 336.642 107.047 65.5159 51.6124 229.595 41.5311 23.6635 2544.91 19.9285 3.24899 1.62386 34.8485 25.5851 1.90075 90.885 16.7639 13.1052 17.2514
internal_count=195524 6943 188581 44267 5584 4174 2825 41442 616 41393 49 835 3339 1102 652 530 2237 450 268 144314 1128 184 92 339 591 70 810 191 140 187
is_linear=0
shrinkage=0.1


Tree=2
num_leaves=31
num_cat=0
split_feature=7 0 2 7 3 6 5 3 3 6 6 5 3 6 3 3 1 5 3 5 3 5 3 6 5 6 1 3 6 5
split_gain=4711.64 201.876 1013.96 85.3105 53.4993 66.1026 65.9182 44.8259 34.065 58.4827 56.8448 57.9086 33.7135 31.4859 46.8002 30.9418 28.6491 123.557 23.9704 23.577 22.7074 22.6761 22.2861 24.9637 56.3788 20.8516 28.7034 23.8209 40.445 23.6706
threshold=1.0000000180025095e-35 1.0000000180025095e-35 1.0000000180025095e-35 0.28058998765008591 0.41222143195827415 0.84632766753173416 0.29321839080459777 0.13655788655788659 0.25082781456953646 0.58670943198522141 0.57770390882231992 0.23557158712541623 0.27956602221308108 0.83919748926760429 0.48089094449853947 0.29321839080459772 1.0000000180025095e-35 0.1356978447373928 0.4728501228501229 0.23831367409349066 0.48993107176645495 0.46709956709956718 0.61027955095751718 0.8211815315779577 0.53073822121441172 0.66557280908895444 1.0000000180025095e-35 0.33813173156586585 0.65234321305690435 0.24336075205640426
decision_type=2 2 2 2 2 2 2 2 2 2 2 2 2 2 2 2 2 2 2 2 2 2 2 2 2 2 2 2 2 2
left_child=1 -1 22 13 7 6 18 16 -9 10 12 -12 19 14 -2 -11 17 -4 -6 -10 -8 -16 -3 24 -24 26 -17 -28 29 -29
right_child=3 2 4 -5 5 -7 20 8 9 15 11 -13 -14 -15 21 25 -18 -19 -20 -21 -22 -23 23 -25 -26 -27 27 28 -30 -31
leaf_value=-0.10167305823818118 0.17384719935375181 -0.10149345395921733 2.0369520030965322 0.11386571115772109 0.1841640589796476 0.09626683029713301 0.51419610514664904 0.058243247783405595 1.0017723007284924 0.042844267826784556 0.52658269831527116 1.7991257681713511 0.10080086114954384 0.13674961638243469 0.25648179324293324 0.16475634554248086 0.29847347870491475 0.10991163780224888 0.52082785544180765 0.11763654865035576 0.87960907600743843 0.14574299347030359 -0.016404675099620979 -0.044388945959860655 0.87597026313261928 0.13729650491568382 0.25034607251079094 1.1078482778725183 0.20141830610844769 0.52078821571269962
leaf_weight=2345.4371034353971 452.6420092061162 619.08832120895386 0.51421295106410958 270.27132438123226 10.352382725104691 10.563120122998951 7.3348960764706117 33.496420463547111 0.90483844280242809 18.383434481918812 0.93727813474833943 0.57820199988782406 2.8293619677424431 139.13625144958496 120.81926558166742 12.70643337816 6.3662055954337111 0.94272374361753464 2.6578227858990422 0.4524192214012146 2.2138759028166533 21.832850009202957 2.3106789272278578 15.691003259271382 1.0207253247499464 28.84329498000443 5.5638664364814758 1.317571818828583 1.8940365426242349 1.4347025379538534
leaf_count=145307 3755 38656 24 1359 111 58 104 1225 34 575 28 22 83 803 880 507 43 44 25 17 26 146 102 930 36 468 87 23 21 25
internal_value=0 -0.0869579 -0.0431811 0.161901 0.190501 0.302716 0.399385 0.158778 0.142233 0.179326 0.487308 1.0121 0.297344 0.179578 0.189588 0.15429 0.390021 0.790044 0.25294 0.70706 0.598917 0.239533 -0.0982176 0.00839599 0.257014 0.193872 0.265078 0.389928 0.557074 0.801826
internal_weight=0 3133.83 788.398 1004.7 150.287 33.1221 22.559 117.165 109.342 75.8454 5.7021 1.51548 4.18662 734.43 595.294 70.1433 7.82314 1.45694 13.0102 1.35726 9.54877 142.652 638.111 19.0224 3.3314 51.7599 22.9166 10.2102 4.64631 2.75227
internal_count=195524 188581 43274 6943 3550 324 266 3226 3115 1890 184 50 134 5584 4781 1706 111 68 136 51 130 1026 39724 1068 138 1131 663 156 69 48
is_linear=0
shrinkage=0.1


Tree=3
num_leaves=31
num_cat=0
split_feature=7 2 3 3 6 7 3 4 1 6 3 6 3 3 6 4 5 7 7 6 4 6 3 3 4 4 7 6 7 3
split_gain=3823.8 162.769 239.876 50.2606 29.5203 29.0345 20.4216 19.8033 14.8231 36.7589 16.6974 14.4036 26.763 13.7521 16.5381 14.3873 12.5361 12.5064 13.2076 21.8949 19.4019 13.7761 12.6714 11.3681 10.9543 10.4165 10.1205 26.5359 17.8131 11.9677
threshold=1.0000000180025095e-35 1.0000000180025095e-35 0.30655913978494626 0.41222143195827415 0.8244186693374328 0.28058998765008591 0.61027955095751718 0.2985592868988392 1.0000000180025095e-35 0.83356977767994733 0.48089094449853947 0.8211815315779577 0.50225225225225234 0.2584651838263396 0.58316459880386828 0.0837566521528786 0.2903993855606759 0.20695872384564887 0.25805582476015848 0.65845517237177975 0.34391801075268824 0.70489444866949935 0.42799539170506917 0.52283152627189333 0.28526220614828213 0.228165522501907 0.20781649655659221 0.71579405650372407 0.22613038407753139 0.56430934656741127
decision_type=2 2 2 2 2 2 2 2 2 2 2 2 2 2 2 2 2 2 2 2 2 2 2 2 2 2 2 2 2 2
left_child=1 6 4 7 13 11 -1 -4 9 10 -5 12 17 15 -15 -3 -9 -2 21 -20 22 -19 -21 -7 -16 -10 29 28 -28 -14
right_child=5 2 3 8 -6 23 -8 16 25 -11 -12 -13 26 14 24 -17 -18 18 19 20 -22 -23 -24 -25 -26 -27 27 -29 -30 -31
leaf_value=-0.10144373501608779 0.12980714224693948 0.027111010898783823 -0.0056659578026363143 0.27435694570660435 0.54616022410936205 0.088571927976781262 -0.0020322029254469694 0.52903435439306401 -0.036437936353330008 0.074315008695320733 0.58492472924238947 0.12278666624718365 0.19055828698949434 0.065422299453068197 -0.076998320028263123 -0.086100422023780723 0.076682395189808072 0.18301012942335343 0.049633606750638631 0.43970968228060664 0.083529349598062019 0.028022482242792399 0.19918158041691489 0.13100500545551483 0.0053775783846960043 0.12109368890073727 0.11513091547849393 0.066351249148797392 0.27715806637746926 0.28747764114482
leaf_weight=2073.9221280198544 299.38154369220138 11.482556842267511 81.727041063830256 7.05804534815252 0.7615345511585464 156.98845294862986 20.872071789577603 0.62401845678686996 4.8898450750857583 9.9379206765443069 2.2937470823526382 232.59682032465935 32.053419336676598 12.254170874133704 70.952932987362146 501.0627807918936 33.614434167742729 140.73907981067896 23.463411711156368 3.7430191934108752 7.7893081605434409 5.9785899072885504 5.2796970158815384 105.60950099304318 20.897669777274132 29.643561670556664 10.289408549666407 17.190267011523247 19.92350660264492 21.145437180995941
leaf_count=143186 2255 507 3526 151 12 805 1128 15 153 59 30 1410 196 575 4197 32349 1142 980 169 26 53 40 35 554 920 631 63 109 127 121
internal_value=0 -0.0858849 -0.0471175 0.0581476 -0.0760654 0.134575 -0.100453 0.0210813 0.13801 0.208227 0.350531 0.143846 0.152191 -0.0768338 -0.0436981 -0.0835641 0.0849268 0.14248 0.16277 0.112045 0.199149 0.176695 0.298963 0.105637 -0.0582563 0.0987876 0.199142 0.165541 0.221978 0.229082
internal_weight=0 2881.99 787.2 169.789 617.412 1082.17 2094.79 115.965 53.8231 19.2897 9.35179 819.574 586.977 616.65 104.105 512.545 34.2385 486.375 186.993 40.2754 16.812 146.718 9.02272 262.598 91.8506 34.5334 100.602 47.4032 30.2129 53.1989
internal_count=195524 188581 44267 5707 38560 6943 144314 4683 1024 240 181 5584 4174 38548 5692 32856 1157 3558 1303 283 114 1020 61 1359 5117 784 616 299 190 317
is_linear=0
shrinkage=0.1


Tree=4
num_leaves=31
num_cat=0
split_feature=7 0 2 3 1 3 3 7 5 4 3 5 7 4 4 4 4 3 1 7 7 7 4 5 3 4 3 7 7 3
split_gain=3154.86 208.211 735.959 21.1956 19.2385 16.4958 13.7817 11.7682 11.5596 39.6347 14.9526 11.424 18.7068 27.2789 19.1227 17.2658 22.8716 15.0806 16.6872 15.0982 12.3372 16.7857 19.2584 22.4267 14.0983 13.3154 15.9465 11.8748 12.5455 11.3185
threshold=1.0000000180025095e-35 1.0000000180025095e-35 1.0000000180025095e-35 0.61027955095751718 1.0000000180025095e-35 0.4651970284237727 0.4651970284237727 0.28058998765008591 0.16152751423149905 0.15694376924323453 0.15649216208222425 0.26198686371100166 0.16677233352872856 0.25793850806451618 0.2469862018881627 0.2211032388663968 0.2169243009774949 0.35566239316239323 1.0000000180025095e-35 0.14894397625288297 0.17587141297679235 0.21313523080114019 0.37727573651108909 0.31751394251394255 0.39484741264927031 0.42136968928344964 0.42799539170506917 0.15904458199998989 0.13478550003881076 0.33813173156586585
decision_type=2 2 2 2 2 2 2 2 2 2 2 2 2 2 2 2 2 2 2 2 2 2 2 2 2 2 2 2 2 2
left_child=1 -1 3 -3 5 8 7 11 9 10 -4 12 27 14 15 16 29 19 -19 -13 -20 22 23 -22 -25 -24 -27 28 -2 -14
right_child=6 2 4 -5 -6 -7 -8 -9 -10 -11 -12 17 13 -15 -16 -17 -18 18 20 -21 21 -23 25 24 -26 26 -28 -29 -30 -31
leaf_value=-0.10138574757232598 0.058209328174155077 -0.10115432587918199 0.26308389242617519 0.0050969312247977107 0.17258151265351609 0.22021972103106491 0.12737063592839606 0.076028043989471245 0.079117317782055857 0.7940544871149271 -0.039072526425726672 0.136097080919939 0.19763009197927214 0.33879063489505601 0.041927207161663066 0.22329774654730752 -0.082050059026740757 -0.02737729143984699 0.14856562521783007 0.057146129979847617 0.029515997241436411 0.13325693146448109 -0.055326180394630664 0.24641829917393859 0.099454164101835732 -0.045053474833557344 0.20223574343183964 -0.0065029476549997231 0.1631771875754521 0.087928666892072294
leaf_weight=1945.7219177642837 22.760039750486612 508.41604351997375 3.4432918392121783 19.494811184704304 84.543535314500332 11.254400141537188 471.00127102434635 115.59764301776886 74.348593488335609 1.0037968289107082 3.1233835816383362 31.448289565742016 22.025572068989277 7.9244772866368285 14.929340600967405 30.73225150257349 4.7389596551656714 7.8633062168955794 97.513297289609909 105.41332356631756 20.790186956524849 86.995954588055611 16.400678396224979 12.328830786049368 13.871847555041311 4.8146435618400556 5.6888445019721985 10.665103897452353 22.784493178129196 16.41402880102396
leaf_count=145307 199 38656 46 1068 771 76 2605 611 2489 43 125 257 142 47 94 197 31 46 642 713 132 554 101 77 89 30 34 76 160 106
internal_value=0 -0.0845099 -0.0379759 -0.0972307 0.138041 0.1067 0.114256 0.10506 0.0911041 0.208825 0.119366 0.111094 0.134362 0.161014 0.145157 0.166008 0.125232 0.102265 0.116132 0.0752876 0.120499 0.103488 0.0684415 0.10707 0.168609 0.000973246 0.088882 0.0884795 0.110721 0.150787
internal_weight=0 2651.35 705.628 527.911 177.717 93.1735 1142.7 671.701 81.9191 7.57047 6.56668 556.103 152.974 96.7646 88.8402 73.9108 43.1786 403.129 266.268 136.862 258.404 160.891 73.895 46.9909 26.2007 26.9042 10.5035 56.2096 45.5445 38.4396
internal_count=195524 188581 43274 39724 3550 2779 6943 4338 2703 214 171 3727 1052 617 570 476 279 2675 1705 970 1659 1017 463 298 166 165 64 435 359 248
is_linear=0
shrinkage=0.1


Tree=5
num_leaves=31
num_cat=0
split_feature=7 0 2 3 6 4 3 6 3 6 3 6 6 6 3 6 5 3 6 3 6 7 6 4 4 5 6 5 6 4
split_gain=2691.95 198.43 600.821 17.6967 15.4054 17.8903 15.2449 14.2119 11.8785 15.9342 22.9986 20.6153 17.3704 15.5975 14.0911 13.397 15.1163 14.7523 9.80876 9.54327 9.48757 11.0606 9.3738 9.17388 16.7448 10.8459 9.69001 8.89613 31.6457 31.3554
threshold=1.0000000180025095e-35 1.0000000180025095e-35 1.0000000180025095e-35 0.65485893416927909 0.83356977767994733 0.53073822121441172 0.4651970284237727 0.61916514897948083 0.41222143195827415 0.60802058762101341 0.29321839080459772 0.60540690537659791 0.8244186693374328 0.84632766753173416 0.27426491578646878 0.62367089968621492 0.23099155180080036 0.33981132075471704 0.61637970423296518 0.40486029122392764 0.84632766753173416 0.21923140058238275 0.65234321305690435 0.20497374111831948 0.20218742529285208 0.20643547273982063 0.62606545117157564 0.18212530712530714 0.57390168555595789 0.15694376924323453
decision_type=2 2 2 2 2 2 2 2 2 2 2 2 2 2 2 2 2 2 2 2 2 2 2 2 2 2 2 2 2 2
left_child=1 -1 3 -3 5 -5 23 -8 9 11 12 27 -11 22 -13 16 18 -18 -12 -17 21 -9 -10 24 -2 -25 -26 28 -4 -30
right_child=6 2 8 4 -6 -7 7 20 13 10 15 14 -14 -15 -16 19 17 -19 -20 -21 -22 -23 -24 25 26 -27 -28 -29 29 -31
leaf_value=-0.10125206869272725 0.10774577989646564 -0.10058396870697786 0.090321688046112458 -0.030273982281844275 -0.037754304711819814 0.48427222396138125 0.24992944552840379 0.14228170025388143 0.30993606358351289 -0.006953147524761197 -0.11020415460584876 0.64834322440465897 0.45985804628439042 0.051041643010813736 0.1639225816722544 0.10533197853096182 0.68310956691385616 0.1764353568161508 0.29420380083239533 -0.081119602065922919 0.092533477254282792 0.10409763219849105 0.16704471056845205 -0.092957211366282655 0.39019205257596401 0.088050307176777004 0.16465319703044917 0.092229849922697477 0.16924146821840966 0.59779578505174535
leaf_weight=1762.2230270290747 52.897858638316393 464.65428548492491 13.547068027779462 1.3593632616102689 12.515321440994738 1.3436210863292215 7.5346362367272368 143.2178647890687 5.4364616461098185 30.966241849586371 1.1797786597162478 1.3244354780763381 0.81818722561001678 10.650801777839659 1.0985432211309669 56.23055374622345 1.2675648592412474 1.051217148080468 1.2199182808399198 2.886039223521947 169.41234309226274 161.2960261516273 29.519451167434454 3.3274545744061461 3.4464899376034728 643.86447741091251 4.2589314207434654 27.217271711677313 3.9928900338709346 2.9825135730206966
leaf_count=145266 332 38866 224 47 772 16 39 768 41 916 24 33 7 54 22 918 32 19 16 39 895 895 224 23 21 3955 24 823 61 77
internal_value=0 -0.0836281 -0.0373608 -0.0971086 0.00900348 0.225501 0.0999414 0.113669 0.112446 0.0985116 0.0745658 0.144157 0.0050634 0.156987 0.428714 0.109172 0.271326 0.453409 0.0953821 0.0962295 0.111503 0.122056 0.189268 0.0906035 0.127808 0.0871197 0.265532 0.129714 0.179427 0.352481
internal_weight=0 2433.48 671.262 479.873 15.2183 2.70298 1189.26 481.461 191.389 145.782 95.6195 50.1627 31.7844 45.6067 2.42298 63.8351 4.71848 2.31878 2.3997 59.1166 473.926 304.514 34.9559 707.795 60.6033 647.192 7.70542 47.7397 20.5225 6.9754
internal_count=195449 188497 43231 39701 835 63 6952 2597 3530 3211 1971 1240 923 319 55 1048 91 51 40 957 2558 1663 265 4355 377 3978 45 1185 362 138
is_linear=0
shrinkage=0.1


Tree=6
num_leaves=31
num_cat=0
split_feature=7 0 2 3 3 1 6 4 3 3 6 6 3 6 3 6 6 4 4 6 4 4 3 6 4 4 7 1 6 6
split_gain=2273.56 195.68 503.285 17.1125 13.6107 12.0495 16.126 21.5813 15.6393 12.5966 12.2214 11.6237 10.5534 9.92647 9.89906 9.75953 9.44942 8.65253 8.64951 10.747 14.5391 10.1547 8.39857 20.0757 8.30757 8.30505 8.99181 20.0082 8.27403 8.98649
threshold=1.0000000180025095e-35 1.0000000180025095e-35 1.0000000180025095e-35 0.61027955095751718 0.4651970284237727 1.0000000180025095e-35 0.58725265287033446 0.21940522036799318 0.30034965034965039 0.4651970284237727 0.54591435048424308 0.61916514897948083 0.083624708624708638 0.8211815315779577 0.84136662795199391 0.65234321305690435 0.66666721315058919 0.42933947772657455 0.44661854103343468 0.67930017538880672 0.24642784241681978 0.22187060478199719 0.13655788655788659 0.58316459880386828 0.34630526953361607 0.35624311132105185 0.15258834174599706 1.0000000180025095e-35 0.66349985295920944 0.6736010396026838
decision_type=2 2 2 2 2 2 2 2 2 2 2 2 2 2 2 2 2 2 2 2 2 2 2 2 2 2 2 2 2 2
left_child=1 -1 3 -3 24 9 7 10 15 18 12 -6 -7 17 -15 -8 -10 -5 19 22 21 -21 23 -4 -2 -26 27 -27 -29 -30
right_child=4 2 5 13 11 6 8 -9 16 -11 -12 -13 -14 14 -16 -17 -18 -19 -20 20 -22 -23 -24 -25 25 26 -28 28 29 -31
leaf_value=-0.10113155366669616 0.085098131059265281 -0.10086459629584271 0.028839197223231802 -0.10239609593011707 0.22241055052924386 0.21960367739650707 0.072508551114297881 0.51667045191273442 0.18103809635793797 0.16871887300762051 0.27848378862960205 0.097894090432134415 -0.030416368684036934 -0.10159131584613637 0.077977849546709388 -0.073317059258254144 0.098723911914991816 0.20154154641416994 -0.084211263043452028 0.15640858938206181 0.099735351407672812 0.57784516781412854 0.039052030902060782 0.44454992036827179 0.015770162586916242 -0.06334523933889423 0.059298660164809773 0.24970503993183768 -0.020392019412214829 0.149170617359904
leaf_weight=1596.3288497878239 523.38184095919132 417.36975651793182 3.390977080911397 1.2771661989390874 7.6147774755954734 2.9750030040740949 15.39291398599744 2.0501050874590865 21.401820696890354 11.546986036002634 5.4226342998445034 485.04543130844831 3.9033650159835815 9.8766267728060466 4.4545487500727168 6.5391232334077349 40.033454418182373 3.5129764974117279 4.0833927243947974 1.1277532149106293 15.275640806183217 1.159662816673517 70.290691616013646 1.7670430261641739 33.292559430003166 5.230812855064868 144.44728023558855 6.3833433166146305 3.7593988478183773 18.538629099726677
leaf_count=145266 3137 38638 44 67 39 12 209 23 168 70 56 2558 41 641 285 51 210 70 25 26 269 23 2281 22 193 27 825 44 26 103
internal_value=0 -0.082372 -0.0357882 -0.0966265 0.0869577 0.0928962 0.118375 0.216286 0.101521 0.069979 0.166223 0.0998187 0.0777213 -0.00412051 -0.045776 0.0290301 0.127399 0.120505 0.0582364 0.0644902 0.134943 0.370066 0.04809 0.171254 0.0783375 0.0616196 0.0701779 0.116518 0.14932 0.120583
internal_weight=0 2239.18 642.852 436.491 1227.69 206.361 97.7184 14.3511 83.3673 108.642 12.301 492.66 6.87837 19.1213 14.3312 21.932 61.4353 4.79014 97.0952 93.0118 17.5631 2.28742 75.4487 5.15802 735.034 211.652 178.359 33.9122 28.6814 22.298
internal_count=195449 188497 43231 39701 6952 3530 770 132 638 2760 109 2597 53 1063 926 260 378 137 2690 2665 318 49 2347 66 4355 1218 1025 200 173 129
is_linear=0
shrinkage=0.1


Tree=7
num_leaves=31
num_cat=0
split_feature=0 2 3 3 6 3 3 5 4 4 3 6 3 3 6 4 6 1 6 3 6 3 3 3 3 3 4 3 4 4
split_gain=1622.48 933.409 16.8125 15.5432 13.5194 9.06905 9.43107 12.1874 11.0145 10.5124 10.0048 13.0594 21.5872 10.5938 14.2789 9.35578 22.7836 8.6203 7.54086 8.63835 7.38625 11.787 10.5791 9.36055 11.8207 11.6771 10.4183 7.91146 19.7136 9.49101
threshold=1.0000000180025095e-35 1.0000000180025095e-35 0.61027955095751718 0.4651970284237727 0.61916514897948083 0.13655788655788659 0.19074371321562336 0.13104143492769751 0.20497374111831948 0.20034602076124566 0.24264069264069268 0.58670943198522141 0.20705187946567258 0.29008882655446477 0.58433488355790175 0.17337186897880544 0.59666090069063549 1.0000000180025095e-35 0.8211815315779577 0.84136662795199391 0.58725265287033446 0.20643547273982057 0.22248551869404951 0.25384979862591811 0.23218517264725799 0.26997810618500279 0.24642784241681978 0.27796173657100814 0.26198686371100166 0.2211032388663968
decision_type=2 2 2 2 2 2 2 2 2 2 2 2 2 2 2 2 2 2 2 2 2 2 2 2 2 2 2 2 2 2
left_child=-1 2 -2 5 -5 -3 15 -8 9 10 11 -9 -13 14 -12 16 -7 -16 -4 -20 21 -10 -23 24 -24 -25 -27 28 -22 -29
right_child=1 3 18 4 -6 6 7 8 20 -11 13 12 -14 -15 17 -17 -18 -19 19 -21 27 22 23 25 -26 26 -28 29 -30 -31
leaf_value=-0.10102275874970437 -0.10073378051982657 0.13816469145699192 0.097281679921334907 0.21418978672579955 0.088358151529258133 0.004190183295206729 -0.097051247098416032 -0.056748401603605739 0.32956949105498834 0.19641928161239783 0.31702318870446844 0.39279631814150096 -0.01313944912389587 0.083511459306505942 -0.059303532485549162 -0.030958054715751387 0.42096896524698901 0.16495771190308164 -0.10143760054864047 0.06480308634136521 0.08336060748776275 -0.084499070348970889 0.045153815071461448 -0.091858237584956676 0.29182204667028849 0.031388756076221346 0.16319609414677561 0.0037287026765458553 -0.012133726799317261 0.070188005127152772
leaf_weight=1445.894462111406 378.11742379702628 18.583836575970054 5.272779397666457 8.6827940270304662 513.45982379466295 5.4937596563249853 4.3833988960832349 8.9809965025633556 2.2665120717138043 11.068999284878371 5.2003217227756968 2.0848804600536814 3.5248942300677299 37.083955621346831 2.2710850387811652 18.10459148325026 1.7229906041175125 6.9877020195126525 8.9495948944240791 4.8034248501062384 43.612050799652934 3.0289674159139386 3.0458162408322078 3.3888279199600246 5.364410812035203 10.56221801415086 13.873512314632533 22.190778074786067 42.865247756242752 678.74886346049607
leaf_count=145266 38638 138 137 44 2670 89 52 116 52 90 53 22 62 341 81 378 24 46 641 285 537 47 46 36 65 91 114 209 581 4498
internal_value=0 0.0399753 -0.0961185 0.0765792 0.0904506 0.0689906 0.067617 0.069291 0.0700957 0.106222 0.091126 0.0180224 0.137727 0.11182 0.184425 0.00741914 0.103696 0.109949 -0.00439424 -0.0433758 0.0667311 0.107834 0.0950338 0.110041 0.20249 0.0820982 0.106223 0.0645632 0.0360258 0.068084
internal_weight=0 1873.72 397.143 1476.58 522.143 954.439 935.855 910.533 906.15 77.2028 66.1338 14.5908 5.60977 51.5431 14.4591 25.3213 7.21675 9.25879 19.0258 13.753 828.947 41.5303 39.2638 36.2348 8.41023 27.8246 24.4357 787.417 86.4773 700.94
internal_count=195449 50183 39701 10482 2714 7768 7630 7139 7087 811 721 200 84 521 180 491 113 127 1063 926 6276 451 399 352 111 241 205 5825 1118 4707
is_linear=0
shrinkage=0.1


Tree=8
num_leaves=31
num_cat=0
split_feature=7 0 2 3 3 3 6 6 4 3 4 6 6 3 7 6 7 7 7 3 5 4 4 7 7 3 6 4 3 5
split_gain=1646.91 191.267 375.103 16.6101 11.0982 9.10109 8.45006 8.11157 7.05558 6.87223 6.87052 10.5838 6.28631 7.58942 13.2128 8.26477 6.97655 7.48055 10.2346 10.3325 10.44 8.81621 9.63018 8.08871 9.08723 8.03387 9.32513 16.6171 8.76711 10.2505
threshold=1.0000000180025095e-35 1.0000000180025095e-35 1.0000000180025095e-35 0.61027955095751718 0.4651970284237727 0.41222143195827415 0.84632766753173416 0.61916514897948083 0.29321839080459777 0.13655788655788659 0.15694376924323453 0.57390168555595789 0.69664312241047288 0.43666428953467645 0.13673012833481021 0.69413422151878523 0.091078785172157242 0.18052926055994314 0.19675107161907163 0.44198286413708693 0.4377976190476191 0.35097051138484514 0.33813173156586585 0.23507970325390112 0.27530297605954573 0.35827114427860701 0.83356977767994733 0.42933947772657455 0.37544326241134757 0.40765107212475643
decision_type=2 2 2 2 2 2 2 2 2 2 2 2 2 2 2 2 2 2 2 2 2 2 2 2 2 2 2 2 2 2
left_child=1 -1 3 -3 12 9 8 -6 -7 10 -4 -12 13 15 -15 -2 -14 25 21 20 -20 22 -19 -21 -25 -18 28 -28 -27 -30
right_child=4 2 5 -5 7 6 -8 -9 -10 -11 11 -13 16 14 -16 -17 17 18 19 23 -22 -23 -24 24 -26 26 27 -29 29 -31
leaf_value=-0.10092451405167102 0.059215064287428648 -0.10061065038416235 0.088307442440863873 -0.004366887009946651 0.18179022224359406 0.081799062480948273 0.027938503420338504 0.076976806184846577 0.16504530112838528 0.051791311122481157 0.047084335237918273 0.42874456811999445 -0.10709918276165575 0.23697285935820875 0.082028025491962253 0.17125097016274962 -0.019707358751362172 -0.049686256481713958 0.094823034153796837 -0.081975064326647737 -0.048623740267332904 -0.086613340332319155 0.16600170321076413 0.13166780605322861 -0.028883607627966774 0.19555419199628296 0.2153131201970746 0.031634784319287158 0.012919383549500474 0.1543706572491515
leaf_weight=1309.5081825787202 557.95543793216348 342.5323734767735 10.502137348055838 18.922601521015167 7.4948031529784194 19.102476067841053 11.143184714019297 497.86701682955027 21.800759561359882 161.60459586046636 1.2961466219276183 1.6535121463239191 3.0900881588459006 6.1810018196701995 50.212213039398193 6.6630327478051177 8.7813302725553495 4.7218184024095553 36.015563890337944 9.1050538420677203 5.9055794030427924 12.959927469491957 3.6860193461179733 6.0624141991138449 8.4239991158246976 3.940078727900981 11.688930548727514 8.5121239200234395 28.672614917159081 6.2376157641410819
leaf_count=145266 3169 38638 58 1063 39 137 54 2558 128 3106 28 19 14 36 268 37 45 25 202 49 33 70 20 35 45 21 57 40 156 33
internal_value=0 -0.0796429 -0.0322924 -0.0955722 0.0669906 0.0684232 0.105137 0.0785312 0.126168 0.0575077 0.126182 0.261034 0.0595021 0.0640309 0.0990108 0.0605372 0.0416794 0.044651 0.0252214 0.0448231 0.0746152 -0.0348762 0.0448719 -0.00811641 0.0383055 0.0695364 0.0828075 0.137917 0.0541524 0.0381933
internal_weight=0 1898.07 588.558 361.455 1284.18 227.103 52.0464 505.362 40.9032 175.056 13.4518 2.94966 778.815 621.012 56.3932 564.618 157.803 154.713 86.8804 65.5126 41.9211 21.3678 8.40784 23.5915 14.4864 67.8327 59.0514 20.2011 38.8503 34.9102
internal_count=195449 188497 43231 39701 6952 3530 319 2597 265 3211 105 47 4355 3510 304 3206 845 831 479 364 235 115 45 129 80 352 307 97 210 189
is_linear=0
shrinkage=0.1


Tree=9
num_leaves=31
num_cat=0
split_feature=0 2 3 3 6 4 5 6 3 6 3 4 4 5 5 4 3 3 3 4 3 4 4 4 3 4 4 6 3 6
split_gain=1282.25 644.665 16.6549 13.0985 12.3296 11.1081 17.8538 8.96571 8.32045 7.71986 8.49095 8.38173 10.8584 7.41874 10.0142 7.05508 6.91046 9.18925 11.5964 8.27215 10.9113 10.6388 10.5763 8.60869 9.66448 7.05916 12.9329 7.04942 9.22956 11.8765
threshold=1.0000000180025095e-35 1.0000000180025095e-35 0.58305739514348798 0.41222143195827415 0.65068453448535812 0.25793850806451618 0.23557158712541623 0.62308934290641627 0.44749373433583967 0.62725099604460677 0.397658817086528 0.23903424393997694 0.39071479885057475 0.26695402298850585 0.22594670406732123 0.1356978447373928 0.36050466698307232 0.33981132075471704 0.32461836409204836 0.24292389853137522 0.23642506142506145 0.23763111888111896 0.16896650171298064 0.22009174311926608 0.29008882655446477 0.30472470238095245 0.34156504065040655 0.58495436920734345 0.28310235431624647 0.59770010942387553
decision_type=2 2 2 2 2 2 2 2 2 2 2 2 2 2 2 2 2 2 2 2 2 2 2 2 2 2 2 2 2 2
left_child=-1 2 -2 7 5 6 -5 16 -8 13 15 -12 -13 14 -9 -11 17 18 19 20 22 23 -3 24 27 -18 -27 -22 29 -29
right_child=1 3 -4 4 -6 -7 8 9 -10 10 11 12 -14 -15 -16 -17 25 -19 -20 -21 21 -23 -24 -25 -26 26 -28 28 -30 -31
leaf_value=-0.1008357832061076 -0.10081620781023359 0.10095094994800202 -0.0084770261752591079 0.11923411725123066 0.064287492960855147 0.1395661075368809 -0.12661077323273459 -0.059602092713796219 0.053390847584862747 -0.12378181725619274 -0.099758399297174505 0.046700029722362105 -0.064666558927379283 -0.06589187461275102 0.1229486709515081 0.050770777638128685 0.075270510649735611 -0.00090759427042530884 0.1501760091124236 0.033058942408336206 0.21423823770400563 0.25376946383740695 0.020552023473113988 0.02021896777430866 0.041526261083080739 0.28154976514334534 0.056254803076562235 -0.095509852636919745 0.30343516173315188 0.13907153904342315
leaf_weight=1185.8815620318055 308.2703751437366 25.80906468629837 20.854520007967949 18.047677550464872 711.85295356437564 43.422684744000435 5.6925701349973661 5.332978783175351 4.6785531044006348 2.3287180457264176 6.3376316837966433 39.764877539128065 11.226842008531092 12.699142422527073 6.8840002883225679 408.66428918018937 20.308319434523586 23.187412992119789 14.993671666830776 75.783546773716807 11.244227362796666 4.7348218690603963 44.69902147166431 11.199489939957855 10.435122223570941 5.494973458349703 4.7509103864431381 3.1505444403737766 1.9416292794048775 6.8524203337728977
leaf_count=145266 38388 235 1313 103 3692 226 31 58 23 27 40 242 67 93 57 3133 130 158 110 795 96 45 685 116 114 33 29 37 23 84
internal_value=0 0.0320821 -0.0949653 0.0592076 0.0682722 0.107755 0.0591492 0.0498336 -0.0454096 0.0418672 0.0447528 0.00870039 0.0221805 -0.0123714 0.0432613 0.0497817 0.0646845 0.0588451 0.0654164 0.0589274 0.0752551 0.111213 0.0499816 0.0961538 0.121446 0.109412 0.177083 0.157411 0.103915 0.0651875
internal_weight=0 1870.64 329.125 1541.52 783.694 71.8415 28.4188 757.824 10.3711 493.238 468.322 57.3294 50.9917 24.9161 12.217 410.993 264.585 234.031 210.844 195.85 120.066 49.5583 70.5081 44.8234 33.6239 30.5542 10.2459 23.1888 11.9446 10.003
internal_count=195449 50183 39701 10482 4075 383 157 6407 54 3717 3509 349 309 208 115 3160 2690 2498 2340 2230 1435 515 920 470 354 192 62 240 144 121
is_linear=0
shrinkage=0.1


Tree=10
num_leaves=31
num_cat=0
split_feature=7 0 2 3 7 3 3 5 3 3 3 5 7 4 7 7 7 7 7 4 4 4 7 7 3 3 4 4 3 4
split_gain=1218.4 189.253 280.548 21.3279 16.218 8.96206 7.95846 6.61554 8.09307 4.81488 4.76785 14.8624 11.1629 10.2295 8.44913 9.20326 8.18438 8.61578 13.4931 17.0237 7.32884 6.78294 5.63287 5.57927 6.45504 13.3797 8.02485 5.67932 6.63245 6.02696
threshold=1.0000000180025095e-35 1.0000000180025095e-35 1.0000000180025095e-35 0.61027955095751718 0.42183522084560948 0.30655913978494626 0.13655788655788659 0.16896650171298064 0.19074371321562336 0.30795574288724981 0.36497211497211501 0.26198686371100166 0.10216608497830386 0.24015503875968994 0.13559707999519316 0.33508701023803228 0.14894397625288297 0.097607760155413559 0.11404817171857519 0.33936762778505902 0.2687369603594929 0.28321141746380896 0.14241832227894116 0.19814349487766733 0.31464602812917425 0.32087118565105993 0.33429672447013498 0.28321141746380896 0.31464602812917425 0.31086759027935507
decision_type=2 2 2 2 2 2 2 2 2 2 2 2 2 2 2 2 2 2 2 2 2 2 2 2 2 2 2 2 2 2
left_child=1 -1 3 -3 7 6 -4 -2 -9 -7 11 12 13 -10 -14 22 17 -13 -19 21 -18 -20 -16 27 26 -26 -25 -22 29 -29
right_child=4 2 5 -5 -6 9 -8 8 10 -11 -12 16 14 -15 15 -17 20 18 19 -21 23 -23 -24 24 25 -27 -28 28 -30 -31
leaf_value=-0.10075565511442403 0.10282610108795004 -0.10038284063845518 0.09805167858876232 0.0078850220527092504 0.10694494968936064 0.19264523360898334 0.018280318974160506 -0.045231634641003576 0.092077411771520901 0.064550957837651926 0.054362480352969124 -0.038158675382108098 -0.0069727645902170664 0.40206262128216769 0.22217162807960433 -0.037340303737908503 -0.065752457688734112 0.20672785085249945 0.10148646049491723 0.19856497320120708 -0.079208189594767442 -0.015613724279532143 0.077439468429897823 0.022368001250025662 0.22461855991068297 0.043914127647397265 -0.12079121444965063 0.10733903051148536 -0.01262616592287941 0.010940601325531762
leaf_weight=1074.5257599358447 23.967864230275154 281.21465356741101 14.431203778833149 19.453525238670409 53.609799601137638 2.9993436038494101 93.771355889737606 8.9001881778240186 2.4548205211758605 135.6203144248575 885.1205869615078 7.0670647397637358 14.998443886637686 1.8797513246536253 2.7709027528762809 6.975875496864318 10.366975501179693 7.0747235268354407 6.8043076545000138 6.456052064895629 7.8198918849229804 18.117535069584846 91.03614104539156 26.554706886410717 4.4337399750947943 54.016295954585075 4.592833310365676 10.877945184707643 45.959243297576904 16.062817305326462
leaf_count=145366 135 38649 102 1085 415 32 2100 54 27 1327 4410 72 83 19 14 50 59 41 37 32 45 93 459 149 23 289 27 61 236 89
internal_value=0 -0.0763734 -0.0285198 -0.0933778 0.0530734 0.0504874 0.0289196 0.0507891 0.0497836 0.0673226 0.0504703 0.0405227 0.0689513 0.226507 0.0630528 0.073474 0.025427 0.0633238 0.0819749 0.0538471 0.0158796 0.0163577 0.0817146 0.0208485 0.0380276 0.0576215 0.00125858 0.00177994 0.0104674 0.0498637
internal_weight=0 1622.02 547.49 300.668 1317.92 246.822 108.203 1264.31 1240.34 138.62 1231.44 346.32 120.116 4.33457 115.781 100.783 226.204 45.5197 38.4526 31.3779 180.684 24.9218 93.807 170.317 89.5976 58.45 31.1475 80.7199 72.9 26.9408
internal_count=195580 188661 43295 39734 6919 3561 2202 6504 6369 1359 6315 1905 652 46 606 523 1253 275 203 162 978 130 473 919 488 312 176 431 386 150
is_linear=0
shrinkage=0.1


Tree=11
num_leaves=31
num_cat=0
split_feature=7 2 3 3 7 4 5 3 6 5 4 3 5 4 6 3 3 6 5 6 3 3 4 4 5 6 5 5 6 6
split_gain=1049.95 148.566 92.3265 21.5402 16.766 12.2314 10.7149 9.83903 8.95001 7.43662 26.1656 23.0305 6.62971 6.40784 5.78783 9.91914 5.77307 5.56222 5.43842 6.97739 5.28961 5.1193 4.87657 4.83832 4.57501 8.32629 8.76043 5.23317 8.06843 6.10549
threshold=1.0000000180025095e-35 1.0000000180025095e-35 0.29185103244837768 0.61027955095751718 0.42183522084560948 0.28321141746380896 0.28619047619047622 0.4728501228501229 0.8244186693374328 0.2903993855606759 0.29185103244837762 0.2469862018881627 0.30347110754414131 0.093933823529411778 0.8211815315779577 0.84136662795199391 0.35145692567567571 0.7373223431782191 0.16896650171298064 0.53667263545559696 0.38487525987525995 0.19074371321562336 0.53073822121441172 0.59471109040074566 0.36398872445384078 0.83919748926760429 0.30492129389379008 0.38126566416040103 0.7373223431782191 0.67119822837220433
decision_type=2 2 2 2 2 2 2 2 2 2 2 2 2 2 2 2 2 2 2 2 2 2 2 2 2 2 2 2 2 2
left_child=1 3 8 -1 18 7 20 -4 9 13 11 -11 16 -3 17 -16 -8 -5 -2 -20 -7 -21 -19 -24 25 26 -14 -26 29 -29
right_child=4 2 5 14 -6 6 12 -9 -10 10 -12 -13 24 -15 15 -17 -18 22 19 21 -22 -23 23 -25 27 -27 -28 28 -30 -31
leaf_value=-0.100558672162122 0.092120160776209492 0.0078076655308437319 -0.012102807108098261 -0.055955505818645869 0.10423026154581477 0.14028225735537511 -0.10339900249974752 0.12571421796853213 0.19013951035078203 -0.10086301395156837 -0.029443873697997891 1.0404154596123669 0.38774952501163135 -0.072468146157721638 -0.1012859190694318 0.076253443701356421 0.025605784592673764 -0.026816290101042396 -0.071824594813299211 -0.034936603459898519 0.42539433836550561 0.045128375292137507 0.29185694279688756 0.044022657865143915 -0.066762197079194896 0.24677884307554679 0.052809606765628347 0.013091804831675833 0.003187426626928485 0.15315427249865532
leaf_weight=939.98551436606795 24.071911461651325 10.27965468727052 94.88945546746254 2.1076128678396371 49.706952303647995 4.9367777034640303 5.768648473545908 5.4793283753097048 1.3693204522132862 0.29698091000318783 19.743141202721745 0.43698580982163548 0.79751300998031993 304.13039936777204 8.3419295186176878 5.053176835179328 8.7015056656673533 1.2799329273402689 5.1675476357340804 8.0375168249011022 0.74951083306223143 1244.0811261311173 2.1749488674104218 1.2350181946530936 5.468710731714963 2.5393375195562831 37.471520977094769 4.9862544927746049 23.79294625017792 8.2810261808335763
leaf_count=143229 135 690 4572 99 415 152 260 87 7 41 1359 29 34 35101 668 283 220 35 33 49 31 6287 28 27 136 23 1012 159 221 158
internal_value=0 -0.0747619 -0.032805 -0.0983634 0.0472478 0.0202938 0.0444157 -0.00457911 -0.0649973 -0.0660405 -0.00764865 0.578626 0.0366574 -0.0698435 0.0038276 -0.0343109 -0.0258231 0.0789829 0.0450373 0.0441359 0.177863 0.0446144 0.139623 0.202097 0.0475062 0.0714252 0.0597896 0.0245548 0.0380298 0.100514
internal_weight=0 1500.3 540.119 960.178 1331.07 203.863 103.494 100.369 336.256 334.887 20.4771 0.733967 97.8075 314.41 20.1926 13.3951 14.4702 6.79751 1281.36 1257.29 5.68629 1252.12 4.6899 3.40997 83.3373 40.8084 38.269 42.5289 37.0602 13.2673
internal_count=195580 188661 44292 144369 6919 7065 2406 4659 37227 37220 1429 70 2223 35791 1140 951 480 189 6504 6369 183 6336 90 55 1743 1069 1046 674 538 317
is_linear=0
shrinkage=0.1


Tree=12
num_leaves=31
num_cat=0
split_feature=7 2 3 3 7 5 5 6 5 4 6 5 4 3 3 4 4 6 6 6 6 4 5 6 3 6 6 3 6 4
split_gain=904.682 147.958 80.6622 21.1104 16.8799 9.55579 7.82185 7.31818 6.70283 10.3656 8.9821 6.05378 14.0035 6.35496 7.03951 6.1447 5.90939 5.80231 5.47423 5.06046 9.34763 6.08034 5.80109 4.99848 9.01745 6.35152 4.53127 4.50254 9.50893 5.36682
threshold=1.0000000180025095e-35 1.0000000180025095e-35 0.29185103244837768 0.58305739514348798 0.42183522084560948 0.25992125984251974 0.25085034013605445 0.8244186693374328 0.2903993855606759 0.29185103244837762 0.65752447054968077 0.23557158712541623 0.24202037351443126 0.35319472616632869 0.35566239316239323 0.24015503875968994 0.093933823529411778 0.68600538246723575 0.68419680826397256 0.61860330254135576 0.61802111723659225 0.18078697769802618 0.17165178571428572 0.8211815315779577 0.84136662795199391 0.7373223431782191 0.64768385033125286 0.4651970284237727 0.61916514897948083 0.34630526953361607
decision_type=2 2 2 2 2 2 2 2 2 2 2 2 2 2 2 2 2 2 2 2 2 2 2 2 2 2 2 2 2 2
left_child=1 3 7 -1 27 6 11 8 16 10 -10 13 15 -4 26 -13 -3 18 19 20 21 -16 -21 25 -25 -5 -15 29 -29 -2
right_child=4 2 5 23 -6 -7 -8 -9 9 -11 -12 12 -14 14 17 -17 -18 -19 -20 22 -22 -23 -24 24 -26 -27 -28 28 -30 -31
leaf_value=-0.10060131373390996 0.040669104336650032 0.0070017086870843154 -0.045892930554211543 -0.064723930893144752 0.10166248103773512 0.034931698582240565 -0.11609749266426304 0.16284788867101463 0.095952325326688848 -0.027253923256182117 0.66393166941958148 0.083528713703285323 -0.023721144864415487 0.13398560482476823 0.18933109932351627 0.27049676270952955 -0.070050414868524286 -0.13206106296870576 0.31312857393548194 -0.13254275777063929 0.38934259265801885 -0.048233610105299196 0.024044088635256297 -0.10110219079912508 0.063506346422558785 0.12506568469071053 0.67304693036507968 0.16358063234502407 0.046051951335689206 0.022734322668432991
leaf_weight=849.28474499005824 584.79003664851189 10.314690229017286 31.489307092502713 2.6401390954852131 46.054775610566139 126.97439916757867 6.3196714306250206 1.4349618405103672 0.97727360669523722 19.224730671849102 0.38935685995966196 4.5718201613053706 10.579657977446912 0.39448053762316959 1.7555389525368905 2.8557843845337629 284.20635957084596 2.4300453886389723 0.66763177327811618 3.037340121343731 0.94409791100770224 2.7889178460463881 10.702741486951707 8.5771533073857409 5.4378873948007813 5.3094805008731782 0.25786801800131798 6.9862556755542746 470.56099061667919 233.45882038027048
leaf_count=142943 3043 690 2108 198 415 3192 299 7 60 1359 10 167 375 20 50 70 35101 111 15 122 7 93 415 825 283 120 21 38 2245 1178
internal_value=0 -0.0728689 -0.0307855 -0.098098 0.0421698 0.0179558 -0.00940021 -0.0624695 -0.0634955 -0.00833705 0.257771 -9.64605e-05 0.0501685 -0.0167142 0.0232715 0.155415 -0.0673519 0.0138105 0.0316266 0.0218526 0.103021 0.0435384 -0.0105705 -0.00130551 -0.0372335 0.0620349 0.347072 0.0400553 0.0477713 0.035552
internal_weight=0 1393.57 522.317 871.249 1341.85 205.769 78.7949 316.547 315.112 20.5914 1.36663 72.4752 18.0073 54.468 22.9787 7.4276 294.521 22.3263 19.8963 19.2286 5.48855 4.54446 13.7401 21.9647 14.015 7.94962 0.652349 1295.8 477.547 818.249
internal_count=195580 188661 44292 144369 6919 7065 3873 37227 37220 1429 70 3574 612 2962 854 237 35791 813 702 687 150 143 537 1426 1108 318 41 6504 2283 4221
is_linear=0
shrinkage=0.1


Tree=13
num_leaves=31
num_cat=0
split_feature=0 2 3 7 3 5 5 3 6 3 6 7 3 3 1 6 6 5 6 7 5 5 7 6 7 7 7 5 5 6
split_gain=860.948 337.936 20.2201 15.8862 5.93969 8.12573 6.75938 5.26383 9.7349 11.7906 14.5583 13.1551 9.20076 16.2474 9.85079 11.8011 13.7486 7.05112 11.7556 17.3866 9.04342 7.89036 6.71217 6.37361 7.72851 10.353 6.3448 5.9556 18.5246 13.8131
threshold=1.0000000180025095e-35 1.0000000180025095e-35 0.58305739514348798 0.42183522084560948 0.13655788655788659 0.13104143492769751 0.14300115207373279 0.36050466698307232 0.65158152447155016 0.43666428953467645 0.65068453448535812 0.268677566762695 0.34498016478486426 0.33813173156586585 1.0000000180025095e-35 0.66456248630463788 0.68249787873926993 0.30492129389379008 0.63913150163150168 0.16945766884343486 0.34391801075268824 0.2903993855606759 0.23507970325390112 0.6556698816374914 0.26013228598799493 0.25595203636823166 0.2320189892360322 0.26198686371100166 0.26111660079051391 0.54872690461770934
decision_type=2 2 2 2 2 2 2 2 2 2 2 2 2 2 2 2 2 2 2 2 2 2 2 2 2 2 2 2 2 2
left_child=-1 2 -2 4 -3 -6 -7 12 9 10 17 -11 13 27 15 -14 -17 21 20 -20 -19 -9 -15 -10 25 -25 -21 28 -8 -29
right_child=1 3 -4 -5 5 6 7 8 23 11 -12 -13 14 22 -16 16 -18 18 19 26 -22 -23 -24 24 -26 -27 -28 29 -30 -31
leaf_value=-0.1005850310964288 -0.10054582220820039 0.092839708366762974 0.0025509884157268754 0.099205353417426576 -0.087908255324207735 0.12898432903360599 0.037475004950124083 0.034155009550026531 -0.019321844604422517 0.13181863917312284 0.21252598978898996 -0.018857155115628046 -0.047392510664951738 0.084121014809090691 -0.014533452453059481 0.40920081881967624 0.070409851174417531 0.17761761156709455 0.16445737713766703 -0.11718626686071527 0.056916145538432494 -0.062202433047672014 0.20929764766900016 0.035016679965786376 0.057974713439878547 -0.04846394033065729 0.024389350935821442 0.23986945479545441 0.28094712235321506 0.013536105076667665
leaf_weight=820.40156631357968 207.2955311704427 19.050211619585752 20.945839880034328 42.651679694652557 5.2190974056720725 7.9612153731286517 182.60607699491084 67.335491267964244 20.069812439382076 36.258996844291687 5.1034741401672354 6.8965024948120108 3.3398374207317811 22.67889311909676 72.832561664283276 1.8834302127361295 3.2905928008258343 12.401572193950416 5.2348193861544159 6.8761114031076414 12.427928559482096 9.7256283089518529 5.2812128365039817 674.04485196620226 153.70771487057209 15.19058735668659 5.8659362569451332 2.7344486843794575 3.1794053204357615 194.12906374968588
leaf_count=145366 38394 134 1340 415 62 71 2155 391 114 160 24 45 62 153 382 25 38 68 30 32 64 48 28 3301 850 74 30 26 23 1675
internal_value=0 0.0227381 -0.0910846 0.0389956 0.0373445 0.0366563 0.0370809 0.0366006 0.0406612 0.0626751 0.0471132 0.10774 0.0280895 0.0341765 -0.00263565 0.0991452 0.193735 0.0400706 0.0726124 0.0110245 0.117203 0.0219941 0.107765 0.0363726 0.0376986 0.0331768 -0.0520104 0.0287994 0.0416416 0.0166799
internal_weight=0 1826.22 228.241 1597.98 1555.33 1536.28 1531.06 1523.09 1031.14 168.126 124.971 43.1555 491.956 410.609 81.3464 8.51386 5.17402 119.867 42.8064 17.9769 24.8295 77.0611 27.9601 863.013 842.943 689.235 12.742 382.649 185.785 196.864
internal_count=195580 50214 39734 10480 10065 9931 9869 9798 5231 892 687 205 4567 4060 507 125 63 663 224 92 132 439 181 4339 4225 3375 62 3879 2178 1701
is_linear=0
shrinkage=0.1


Tree=14
num_leaves=31
num_cat=0
split_feature=2 7 3 3 7 5 5 6 6 5 4 3 6 6 4 3 6 6 6 6 6 3 5 6 5 6 5 4 4 7
split_gain=684.874 131.761 65.2144 20.7165 16.1787 8.62281 6.55406 5.89929 5.72019 5.39498 9.87294 5.87605 5.57886 6.26624 4.58934 5.20467 15.276 8.04321 7.15736 4.7646 4.47528 4.29957 4.2269 4.2264 5.86532 5.00768 4.20689 5.35299 8.64524 10.911
threshold=1.0000000180025095e-35 0.063313041949591475 0.28310235431624647 0.58305739514348798 0.42183522084560948 0.25992125984251974 0.25294280570558103 0.58670943198522141 0.8244186693374328 0.23557158712541623 0.24202037351443126 0.35319472616632869 0.68600538246723575 0.68084854388773552 0.093933823529411778 0.23218517264725799 0.54872690461770934 0.54780920498280616 0.50865881933297674 0.69413422151878523 0.60701191364946627 0.4651970284237727 0.2298073936004971 0.61860330254135576 0.17165178571428572 0.61802111723659225 0.16896650171298064 0.19248412138320395 0.20497374111831948 0.17915030511544336
decision_type=2 2 2 2 2 2 2 2 2 2 2 2 2 2 2 2 2 2 2 2 2 2 2 2 2 2 2 2 2 2
left_child=3 2 8 -1 26 6 9 -7 14 11 -11 -4 13 22 -2 19 17 18 -17 -16 -9 -8 23 25 -25 -13 -3 -28 29 -29
right_child=1 4 5 -5 -6 7 21 20 -10 10 -12 12 -14 -15 15 16 -18 -19 -20 -21 -22 -23 -24 24 -26 -27 27 28 -30 -31
leaf_value=-0.10049173175704905 0.006491347633422075 0.073153489628172003 -0.045431974990557601 -0.0014475009274458818 0.096828337503149287 0.15539673551992833 -0.14354240492788028 -0.082099134727022252 0.13596865992735316 0.12162753939681321 -0.020553900325202677 0.054808322070458576 -0.13102467604284282 0.20486376261943315 -0.072621874197931383 0.3545420686357077 -0.051174670903145585 0.55646874569949001 0.015576847415821084 0.43142151885112157 0.028983594620204747 0.12138080777695054 -0.17308435996531801 -0.12818558647246556 0.03550399866304009 0.29500481157450836 -0.0093730485105038355 0.022264682804414737 0.030836327519333108 0.14444288211649842
leaf_weight=696.03390074055642 9.8246512170881015 24.224727731198072 34.457371048163623 21.779039216227829 39.492102753371 3.6113302432931951 5.2582283341325811 3.7318431683816007 1.4885911718010891 8.6249039545655268 11.259483483154325 4.1197291254066064 2.2135419202968469 1.9867318365722884 185.16180774383247 0.83864025026559819 70.886683077085763 0.44392977934330691 2.4219107045792043 0.18772883713245292 128.89002366550267 0.69339564442634571 1.0892941430211056 2.8351186048239461 9.6055241203866881 1.0996452709659932 31.884297035634518 14.052576392889025 1227.1636406779289 15.232121020555494
leaf_count=142943 690 135 2613 1426 415 113 321 182 7 284 460 135 113 40 27858 38 7487 7 181 29 3190 5 47 131 381 7 173 70 6027 72
internal_value=0 0.0176552 -0.0267293 -0.0974866 0.0337647 0.0137977 -0.0115593 0.0292917 -0.0595204 -0.00377295 0.0411177 -0.019322 0.0198805 0.0359895 -0.0605991 -0.0631349 -0.0408294 0.157132 0.102761 -0.0721114 0.0258578 -0.112677 0.018095 0.0298872 -0.00179949 0.105414 0.0318672 0.0310909 0.0321177 0.0858144
internal_weight=0 1842.78 490.73 717.813 1352.05 219.476 83.243 136.233 271.254 77.2913 19.8844 57.407 22.9496 20.736 269.765 259.941 74.5912 3.70448 3.26055 185.35 132.622 5.95162 18.7493 17.66 12.4406 5.21937 1312.56 1288.33 1256.45 29.2847
internal_count=195580 51211 44319 144369 6892 8022 4537 3485 36297 4211 744 3467 854 741 36290 35600 7713 226 219 27887 3372 326 701 654 512 142 6477 6342 6169 142
is_linear=0
shrinkage=0.1


Tree=15
num_leaves=31
num_cat=0
split_feature=0 2 3 7 7 1 3 3 5 4 3 5 5 3 4 3 5 3 7 7 4 4 3 7 7 7 3 3 5 7
split_gain=713.224 253.728 18.503 11.6874 7.20668 13.4441 7.15921 5.40834 5.92907 14.9589 11.7506 6.10099 14.0087 11.5711 13.0693 6.87414 9.49093 6.42208 6.06147 14.3205 7.68226 9.96859 5.13851 6.21243 5.26713 5.61575 5.02272 5.01214 4.96103 4.84004
threshold=1.0000000180025095e-35 1.0000000180025095e-35 0.58305739514348798 0.42183522084560948 0.076056496367651938 1.0000000180025095e-35 0.4651970284237727 0.41222143195827415 0.3722167243938645 0.38126566416040103 0.3422238027501186 0.30492129389379008 0.29321839080459777 0.36050466698307232 0.30962916139907298 0.38119783996072659 0.28619047619047622 0.3019850628930818 0.19731959585757841 0.24725017926272522 0.27303030303030307 0.22648879716981132 0.39202437731849499 0.20695872384564887 0.24625524025440323 0.13090970309444902 0.35827114427860701 0.36930006930006937 0.29434564523483814 0.36665194592297462
decision_type=2 2 2 2 2 2 2 2 2 2 2 2 2 2 2 2 2 2 2 2 2 2 2 2 2 2 2 2 2 2
left_child=-1 2 -2 4 5 6 -3 8 11 -10 -11 12 15 14 -13 -6 18 -16 -17 20 21 -20 24 -24 25 -15 -12 -27 -14 -9
right_child=1 3 -4 -5 7 -7 -8 29 9 10 26 13 28 22 17 16 -18 -19 19 -21 -22 -23 23 -25 -26 27 -28 -29 -30 -31
leaf_value=-0.10049236454282751 -0.10044643101457365 0.016688531795926585 -2.2037777684680266e-06 0.08723580760680838 0.03055230720946002 0.070420853624845167 0.087095548055353605 0.032852632453275778 -0.0995475520419591 0.14495676475410932 -0.096146300446101285 0.13119354370939532 -0.12838303833782136 0.0024672252451246827 -0.036461114555060202 -0.060869705911734864 0.13079506339003016 0.021502833456381015 0.019708226038175732 -0.089647061737039041 -0.02706737521765756 0.22545983772254924 -0.0093956534591536599 0.080178916424750668 0.018970708238283226 0.059563012270724518 0.010459305434671348 0.13469869817362765 -0.026333016337997485 0.092662928757802271
leaf_weight=683.44716158043593 170.02496044524014 122.71250219456851 20.557046556845307 37.964200537651777 247.4595305621624 122.36244144290686 16.368632718920708 690.08970575779676 13.7149101793766 6.331363469362258 4.8411433398723593 9.2210531309246999 5.6552589759230605 5.4158215075731269 25.592122718691826 22.321787908673286 4.3566976040601721 75.516321644186974 4.5453486144542712 8.6320820003747922 4.9962426871061316 4.8860084712505341 16.282979883253578 14.762258745729921 10.255879603326319 13.01421783864498 50.751212649047375 27.936958178877831 30.217179089784622 13.800553791224955
leaf_count=145474 38427 2711 1319 430 1276 827 81 3204 67 32 26 48 29 27 144 116 22 386 22 48 23 21 77 73 53 58 251 124 153 127
internal_value=0 0.0194941 -0.0896121 0.0324094 0.0310854 0.0462448 0.0249748 0.0280613 0.021142 -0.00505228 0.0158766 0.0248728 0.0166089 0.0387744 0.0172251 0.023734 -0.010189 0.00683126 -0.0237237 0.0122336 0.0731892 0.1263 0.0658939 0.0331978 0.0838206 0.0981646 0.00117578 0.110821 -0.0424211 0.0340253
internal_weight=0 1800.59 190.582 1610 1572.04 261.444 139.081 1310.6 606.706 75.6386 61.9237 531.068 333.07 197.998 110.329 297.198 49.7382 101.108 45.3815 23.0597 14.4276 9.43136 87.6681 31.0452 56.6229 46.367 55.5924 40.9512 35.8724 703.89
internal_count=195676 50202 39746 10456 10026 3619 2792 6407 3076 376 309 2700 1710 990 578 1528 252 530 230 114 66 43 412 150 262 209 277 182 182 3331
is_linear=0
shrinkage=0.1


Tree=16
num_leaves=31
num_cat=0
split_feature=0 2 3 7 3 3 5 4 7 3 5 5 5 3 5 3 5 3 4 5 4 3 5 4 5 5 3 4 7 7
split_gain=640.476 217.726 18.2808 11.1704 6.92398 5.29579 6.43922 7.44202 7.54993 6.11051 6.06229 18.432 16.0297 10.3732 11.9302 14.0966 7.39689 7.2292 11.4601 9.86204 7.39091 5.48314 7.32727 9.4133 7.36518 10.0939 6.543 6.28238 9.77327 5.99941
threshold=1.0000000180025095e-35 1.0000000180025095e-35 0.58305739514348798 0.42183522084560948 0.13655788655788659 0.41222143195827415 0.36873433583959908 0.38126566416040103 0.099334127761954341 0.40223638180909554 0.30347110754414131 0.29185103244837762 0.2903993855606759 0.27796173657100814 0.31086759027935507 0.29865620490620498 0.30655913978494626 0.35319472616632869 0.31440092165898625 0.32104428587609019 0.36240942028985518 0.38119783996072659 0.28619047619047622 0.28526220614828213 0.26198686371100166 0.26111660079051391 0.31086759027935501 0.28018691588785055 0.133360635685392 0.16945766884343486
decision_type=2 2 2 2 2 2 2 2 2 2 2 2 2 2 2 2 2 2 2 2 2 2 2 2 2 2 2 2 2 2
left_child=-1 2 -2 4 -3 6 10 8 -8 -9 11 12 21 -12 15 -15 -17 -16 -19 -20 -21 22 23 24 25 -6 -24 -26 -29 -28
right_child=1 3 -4 -5 5 -7 7 9 -10 -11 13 -13 -14 14 17 16 -18 18 19 20 -22 -23 26 -25 27 -27 29 28 -30 -31
leaf_value=-0.10044533904110364 -0.10040375274849972 0.085761100005575963 -1.9814281413399483e-06 0.084586266112867459 0.032104440730849754 0.032908340181906644 0.070398742887133658 0.024188313000596189 -0.088320915127771571 -0.052227685733926381 -0.035247367092390181 -0.043095374113206499 0.1971200942312229 0.26942227991150297 0.01391175543439232 0.015340924995677338 0.12466230748120835 -0.095406469919073478 0.13206928064360091 0.034104330503876061 0.12246905075622885 -0.0068919305463895283 -0.11950863339025714 0.11230373770070377 -0.016989588779087194 0.19475255617732723 -0.059764109697222859 0.15527745608431909 -0.0015373458737788191 0.12465610717954596
leaf_weight=618.68336457991973 153.90700609982014 20.321924518793821 20.557006404269487 35.372827500104904 244.69018533267081 771.18007199466228 3.696400802582505 61.198344554752111 15.838459402322767 12.622598826885222 18.159741098061204 44.826501643285155 5.3056206032633773 4.3306693304330137 91.270986748859286 11.547546125948431 13.338393766432999 4.97062063217163 15.978185180574654 69.813184332102537 10.950065083801745 55.980433428660035 6.3310649544000608 13.253673357889054 57.851966120302677 3.8760217204689971 4.0832543596625328 5.9683251455426243 11.89592933654785 3.1055942177772522
leaf_count=145474 38427 143 1319 430 2588 3684 34 326 78 70 210 330 30 28 592 63 82 27 88 367 52 321 60 101 550 24 32 72 59 15
internal_value=0 0.0175627 -0.0885735 0.0290087 0.0277663 0.0270118 0.0212622 -0.00340214 -0.0582879 0.011122 0.0245633 0.0178035 0.024424 0.0374204 0.0433594 0.102911 0.0739351 0.0343435 0.0526779 0.0602865 0.046085 0.0221729 0.0268077 0.0296991 0.026323 0.0346407 -0.0453788 -0.000982919 0.0508534 0.0199057
internal_weight=0 1792.22 174.464 1617.76 1582.39 1562.06 790.884 93.3558 19.5349 73.8209 697.528 457.169 412.342 240.359 222.2 29.2166 24.8859 192.983 101.712 96.7414 80.7632 407.036 351.056 337.536 324.282 248.566 13.5199 75.7162 17.8643 7.18885
internal_count=195676 50202 39746 10456 10026 9883 6199 508 112 396 5691 4182 3852 1509 1299 173 145 1126 534 507 419 3822 3501 3394 3293 2612 107 681 131 47
is_linear=0
shrinkage=0.1


Tree=17
num_leaves=31
num_cat=0
split_feature=0 2 3 7 6 3 4 3 7 4 3 3 4 4 7 6 3 3 6 3 3 3 7 7 1 4 4 6 6 3
split_gain=575.688 187.291 18.0441 10.5436 6.41008 7.48702 11.2175 9.24051 8.91475 6.72588 8.74894 6.50683 5.45855 11.4394 17.6952 5.04875 5.9781 5.55802 5.08825 4.75872 5.37024 7.41739 7.80006 4.48521 17.1966 9.97864 10.9831 9.98354 20.1914 12.7302
threshold=1.0000000180025095e-35 1.0000000180025095e-35 0.58305739514348798 0.42183522084560948 0.61529429228030874 0.27796173657100814 0.25595575723199099 0.20057471264367818 0.13478550003881076 0.23012361286697572 0.24932432432432436 0.45961478720099419 0.34391801075268824 0.3244428639165482 0.17524060332122532 0.61475591527755846 0.29431909750201457 0.31751394251394255 0.57584202740411639 0.27426491578646878 0.2584651838263396 0.23546315077755242 0.17524060332122532 0.10216608497830386 1.0000000180025095e-35 0.22476265133699155 0.30628703094140886 0.58074382065691821 0.5837603555345493 0.21458087367178277
decision_type=2 2 2 2 2 2 2 2 2 2 2 2 2 2 2 2 2 2 2 2 2 2 2 2 2 2 2 2 2 2
left_child=-1 2 -2 4 11 6 7 -6 -9 -10 -11 12 13 15 -15 16 23 18 -18 20 21 22 -8 24 25 27 -27 -3 -29 -30
right_child=1 3 -4 -5 5 -7 19 8 9 10 -12 -13 -14 14 -16 -17 17 -19 -20 -21 -22 -23 -24 -25 -26 26 -28 28 29 -31
leaf_value=-0.10040281475643387 -0.10036519018205306 0.0043325405218461559 -1.7840264888260468e-06 0.081935725691143393 -0.054388141709579021 0.024000501331655485 -0.042929182550137453 -0.0084872888639434593 0.17210516746061083 -0.053270565309361043 0.14520200518319301 0.14352825169181407 -0.028868011935030604 0.008161587792914397 0.28663194364497352 0.16257445406576279 -0.11936904049856073 0.028218175997544667 -0.0043480936703031619 -0.13803206561794559 0.013286943060719212 -0.10533531137973828 0.19219299860624486 0.02951383115317768 0.12535131383227432 -0.072514575773974674 0.3518649663707949 0.55171655852358092 0.18458735091456899 -0.05201922075148651
leaf_weight=560.03289512405172 139.31160461087711 14.439144575968387 20.556970071047544 32.989509236067533 9.2901083845645172 1270.4273947887123 5.4065108913928297 11.245971040800216 8.113467141985895 4.4330684393644315 4.4510896578431129 5.9035038612782946 11.862707227468489 4.4688153062015754 4.662930890917778 3.1091438177973023 5.1629810631275204 51.163152253255248 15.078201645985244 4.6894150767475358 15.73615315556526 14.321712687611578 1.9091913253068922 74.690974749624729 27.588092371821404 12.008012296631929 0.64246715977788049 1.0360962245613325 5.4849735703319293 3.8842808119952679
leaf_count=145474 38427 342 1319 430 97 6797 121 238 35 20 20 32 75 37 25 26 52 322 118 41 180 150 10 394 231 391 13 23 107 129
internal_value=0 0.0158141 -0.0874598 0.0259793 0.0248192 0.0221365 -0.0076152 0.0321259 0.0605828 0.106281 0.046167 0.0398355 0.0372337 0.0407434 0.150357 0.0360723 0.0342099 0.0106698 -0.0336868 -0.0430771 -0.0311627 -0.0634894 0.0184311 0.0462354 0.0654256 0.0213334 -0.050962 0.0581452 0.132819 0.0864956
internal_weight=0 1784.07 159.869 1624.2 1591.21 1350.02 79.5967 37.5337 28.2436 16.9976 8.88416 241.185 235.282 223.419 9.13175 214.288 211.178 71.4043 20.2412 42.063 37.3736 21.6374 7.3157 139.774 65.0831 37.495 12.6505 24.8445 10.4054 9.36925
internal_count=195676 50202 39746 10456 10026 7709 912 410 313 75 40 2317 2285 2210 62 2148 2122 492 170 502 461 281 131 1630 1236 1005 404 601 259 236
is_linear=0
shrinkage=0.1


Tree=18
num_leaves=31
num_cat=0
split_feature=0 2 3 7 3 5 7 5 3 5 4 7 5 5 5 4 4 3 7 7 5 7 7 4 4 7 4 5 5 4
split_gain=517.846 161.404 17.7918 9.85072 4.45129 5.13876 5.81742 5.44153 4.82348 7.19223 9.85532 5.85911 5.25003 13.6181 7.73697 5.58778 9.23784 4.9108 11.8841 4.72062 4.55348 9.69327 8.46245 13.191 15.8783 10.6737 14.1355 7.56738 7.514 5.45411
threshold=1.0000000180025095e-35 1.0000000180025095e-35 0.58305739514348798 0.42183522084560948 0.13655788655788659 0.13104143492769751 0.20117853806267097 0.14300115207373279 0.41222143195827415 0.17574992574992579 0.18321596244131458 0.31217690149739147 0.32268272764393641 0.32947860962566855 0.32104428587609019 0.32799692622950827 0.3244428639165482 0.40486029122392764 0.18772900974820395 0.3094086856376343 0.29603547209181019 0.24444343752732464 0.23062578180340451 0.27511467889908264 0.26992063492063501 0.18675704203684032 0.24575783721599084 0.27303030303030307 0.25793850806451618 0.31751394251394255
decision_type=2 2 2 2 2 2 2 2 2 2 2 2 2 2 2 2 2 2 2 2 2 2 2 2 2 2 2 2 2 2
left_child=-1 2 -2 4 -3 6 -6 -7 11 -10 -11 17 14 15 19 16 -14 -9 -19 20 22 29 23 24 25 -12 -27 -26 -28 -22
right_child=1 3 -4 -5 5 7 -8 8 9 10 12 -13 13 -15 -16 -17 -18 18 -20 -21 21 -23 -24 -25 27 26 28 -29 -30 -31
leaf_value=-0.10036436504313427 -0.10033031110462752 0.0683458840440756 -1.609507152232027e-06 0.079273708518919322 -0.17150851583497717 0.10400469633482563 0.064015681029490124 0.019314505431812318 0.1286313973983304 -0.10801666932076173 0.01616195668929065 -0.029223995647708959 -0.10695430347067592 0.02497549676713649 0.14893107630998323 -0.1022067600951569 0.055044657764943043 -0.085144030727058784 0.035311413116336135 0.095896858067646251 0.052944413285181229 0.13353769419563657 -0.0083099118580283338 -0.010597908882577086 0.27149815871329236 0.15313137702300428 -0.059399817046859087 0.10260525660730697 0.097759065253203853 -0.029380258908950508
leaf_weight=506.92297183629125 126.09594423347153 20.61623540520668 20.556937736459076 30.801654599606991 2.8547056633979073 8.0275107324123365 1.6577023640274999 731.92552761361003 6.9115368425846091 5.4351639077067366 49.928336538374424 27.673974595963955 5.8066256195306805 473.07856916636229 6.2024377733469001 11.300268121063707 8.9388076290488225 15.177252469584344 17.792395181953907 12.475516714155672 39.158145107328892 12.852491393685339 54.09153513610363 37.859771199524403 4.5386777743697149 16.488607272505764 6.7491694092750532 6.3850445821881294 5.5389767587184906 10.129253149032591
leaf_count=145474 38427 143 1319 430 49 69 13 5699 37 27 241 207 25 2250 30 50 42 98 82 101 174 54 240 177 22 69 29 29 23 46
internal_value=0 0.0142199 -0.0862668 0.0232586 0.02218 0.0215772 -0.0849851 0.0218826 0.0214618 0.0270775 0.0261623 0.0159785 0.02712 0.0210998 0.0385715 -0.049297 -0.00874915 0.0176139 -0.0201391 0.0358998 0.0328286 0.0561941 0.0248326 0.0388944 0.0598003 0.0441197 0.0926272 0.172778 0.0114408 0.0360255
internal_weight=0 1777.05 146.653 1630.4 1599.59 1578.98 4.51241 1574.47 1566.44 773.869 766.957 792.569 761.522 499.124 262.398 26.0457 14.7454 764.895 32.9696 256.196 243.72 62.1399 181.58 127.489 89.6288 78.7051 28.7768 10.9237 12.2881 49.2874
internal_count=195676 50202 39746 10456 10026 9883 62 9821 9752 3666 3629 6086 3602 2367 1235 117 67 5879 180 1205 1104 274 830 590 413 362 121 51 52 220
is_linear=0
shrinkage=0.1


Tree=19
num_leaves=31
num_cat=0
split_feature=0 2 3 6 3 5 6 3 6 3 4 6 4 5 4 6 6 6 4 6 3 4 3 4 3 3 3 6 4 6
split_gain=466.396 139.418 17.5231 4.61407 6.876 6.81026 6.12333 5.50983 4.34774 7.80321 5.71447 3.80435 8.05188 9.88844 7.45691 5.95545 4.3423 4.41291 4.32651 4.0671 3.59447 3.83132 3.4153 7.59877 5.45472 6.59982 4.94683 5.95839 4.04228 3.84387
threshold=1.0000000180025095e-35 1.0000000180025095e-35 0.58305739514348798 0.61307686398430505 0.41222143195827415 0.44661854103343468 0.86963411926826573 0.45961478720099419 0.8211815315779577 0.84136662795199391 0.42933947772657455 0.65068453448535812 0.25793850806451618 0.32268272764393641 0.23557158712541623 0.629647822506048 0.62840553108195496 0.64768385033125286 0.37727573651108909 0.64129388893978645 0.41548451548451554 0.3861642743221691 0.2584651838263396 0.25595575723199099 0.23546315077755242 0.2242184982275218 0.20057471264367818 0.61802111723659225 0.30801282051282058 0.62308934290641627
decision_type=2 2 2 2 2 2 2 2 2 2 2 2 2 2 2 2 2 2 2 2 2 2 2 2 2 2 2 2 2 2
left_child=-1 2 -2 7 5 6 22 -3 10 -10 -4 12 14 16 19 -15 -14 -18 -17 -6 21 -13 23 26 25 -25 -5 -28 -27 -24
right_child=1 3 8 4 11 -7 -8 -9 9 -11 -12 20 13 15 -16 18 17 -19 -20 -21 -22 -23 29 24 -26 28 27 -29 -30 -31
leaf_value=-0.10032960280957173 -0.10029878576831507 0.031411930697538712 -0.10197799499485614 -0.04000946408668702 0.011892698420622906 -0.10102481776782027 0.13800590683864453 0.13124253714494785 -0.10100387564841179 0.053425080443283382 0.11039540081257411 0.10012875162779232 0.037014416811895941 0.10040631417020043 -0.076482325788713973 -0.077257428967481043 0.17309612796531532 0.074332109693112824 0.047580927940612368 0.13499722513559076 0.021718547967445937 -0.0076433512097739869 0.038407608737280143 -0.077235015440271254 -0.095656512680217284 0.18725253875002143 -0.080457756694720162 0.066915712159495475 -0.034336249549192059 0.010485156779587633
leaf_weight=458.83373371255584 114.13037423486821 229.53077831026167 1.6372374473139668 10.021978281438352 10.376779414713384 5.4053432196378699 3.8153816908597937 5.6649953313171855 7.5312582561746222 5.7856383342295885 5.6027746540494263 11.564462706446649 5.6900366991758373 5.5136279389262226 8.1732147112488729 6.7680150866508466 12.168811716139318 7.2013112530112258 4.7068015038967133 3.6199239939451209 708.3462430126965 4.615040771663188 54.76307051628828 4.1307091694325235 14.086662426590918 2.306891225278378 3.2234354428946999 18.422212775796652 1.2800553906708954 494.36556234024465
leaf_count=145474 38427 2207 132 102 55 31 18 33 791 283 113 59 27 24 40 33 59 33 25 19 3575 22 346 80 155 39 47 194 24 3209
internal_value=0 0.0128037 -0.0849907 0.0208561 0.0186796 0.0107241 0.0117201 0.0338165 -1.44562e-06 -0.0339109 0.0623698 0.0248507 0.0481782 0.0738896 -0.000587231 0.0149912 0.113817 0.136378 -0.0260506 0.0437308 0.0227831 0.0693878 0.0109206 -0.0132048 -0.0586351 0.00893841 0.0180756 0.0449691 0.108175 0.0132698
internal_weight=0 1770.45 134.687 1635.76 1400.57 611.821 606.416 235.196 20.5569 13.3169 7.24001 788.744 64.2185 42.0486 22.1699 16.9884 25.0602 19.3701 11.4748 13.9967 724.526 16.1795 602.601 53.4719 21.8043 7.71766 31.6676 21.6456 3.58695 549.129
internal_count=195676 50202 39746 10456 8216 4245 4214 2240 1319 1074 245 3971 315 201 114 82 119 92 58 74 3656 81 4196 641 298 143 343 241 63 3555
is_linear=0
shrinkage=0.1


Tree=20
num_leaves=31
num_cat=0
split_feature=0 2 5 7 6 4 6 6 6 4 6 5 4 4 5 5 4 5 6 6 4 6 4 4 4 7 4 6 6 1
split_gain=417.672 118.143 16.0312 9.78124 6.16128 6.15094 5.75181 4.07317 3.55187 6.28019 3.39693 6.47354 3.70755 3.82986 3.44359 12.8723 6.48943 9.22581 6.71787 5.94 5.54458 4.76919 5.26622 4.36032 7.149 10.2018 5.9022 4.89793 9.27161 8.51778
threshold=1.0000000180025095e-35 1.0000000180025095e-35 0.53073822121441172 0.37331185112256154 0.8244186693374328 0.27151675485008825 0.7373223431782191 0.90231595787888708 0.629647822506048 0.25085034013605445 0.6102939222730891 0.1356978447373928 0.14644659377628264 0.15563244905805465 0.18212530712530714 0.19304295220810655 0.20497374111831948 0.21244469026548676 0.51488891010949855 0.5837603555345493 0.21357917987131472 0.51488891010949855 0.0837566521528786 0.30472470238095245 0.34391801075268824 0.177919863853644 0.29185103244837762 0.58725265287033446 0.58553126506636943 1.0000000180025095e-35
decision_type=2 2 2 2 2 2 2 2 2 2 2 2 2 2 2 2 2 2 2 2 2 2 2 2 2 2 2 2 2 2
left_child=-1 2 -2 10 6 8 -4 -6 -5 -10 14 -12 -13 -14 21 -16 19 -18 -19 -17 -20 22 -3 26 25 -25 27 28 -22 -29
right_child=1 3 4 5 7 -7 -8 -9 9 -11 11 12 13 -15 15 16 17 18 20 -21 23 -23 -24 24 -26 -27 -28 29 -30 -31
leaf_value=-0.10029796865369321 -0.097550213724891643 0.056443219815309267 -0.10510036574682827 0.051842459660003337 -0.10087611846701566 0.079750811587570566 0.16176090550405964 0.015309181466020429 0.017558493150406796 -0.21548711278720331 -0.12077423921896635 0.10759658861538371 -0.090703700947009094 0.015451860575811455 -0.073302664236370552 0.02883496896306641 -0.064343670725180171 0.23521148660773528 0.19186520808946211 0.13508319628891141 0.032960196285069708 0.062593880451242659 -0.12439001428458805 0.035069102457209247 -0.020756693160199836 0.18846301234903953 -0.088367817860257658 -0.10612781572107394 0.22655846648307706 0.015764699539824997
leaf_weight=414.49830604181625 106.34936357010156 3.397866988554596 1.0335762412287319 4.925187870860098 4.9715338670648617 39.578887104988098 3.695254186168313 7.6764777363277972 3.1521846875548363 1.826330918818712 3.495756058022379 4.3555103782564393 3.4070570115000001 1365.4931992869824 13.169055335223673 10.657511580735447 11.433365279808639 1.5692356284707774 2.0040181949734679 10.393430255353449 36.738709725439548 45.237914791330695 3.0613850243389606 11.247995065525179 7.680054545402526 7.0552802458405486 5.3271008320152751 6.7157859671860924 2.6523179542273274 39.170094449073076
leaf_count=145223 38331 18 91 57 752 520 31 473 35 20 41 29 34 7681 154 121 117 12 22 84 382 431 51 82 51 36 46 215 26 220
internal_value=0 0.0112354 -0.083 0.0183285 0.00605 0.0621144 0.103433 -0.0303596 -0.00836751 -0.0679325 0.0169695 0.0151348 0.0154807 0.0151876 0.0285827 0.021557 0.0297408 0.0214941 0.0296616 0.0812926 0.0269417 0.0511169 -0.0292633 0.0241068 0.0602195 0.0941972 0.0137505 0.0201296 0.0459958 -0.0020753
internal_weight=0 1767.47 123.726 1643.75 17.3768 49.4826 4.72883 12.648 9.9037 4.97852 1594.26 1376.75 1373.26 1368.9 217.511 165.814 152.645 131.594 120.161 21.0509 118.591 51.6972 6.45925 116.587 25.9833 18.3033 90.604 85.2769 39.391 45.8859
internal_count=195386 50163 39678 10485 1347 632 122 1225 112 55 9853 7785 7744 7715 2068 1568 1414 1209 1092 205 1080 500 69 1058 169 118 889 843 408 435
is_linear=0
shrinkage=0.1


Tree=21
num_leaves=31
num_cat=0
split_feature=0 2 5 7 4 6 6 6 6 7 4 4 7 7 7 4 4 4 1 5 4 7 7 6 6 7 6 7 4 6
split_gain=376.787 102.561 15.5754 8.81764 7.38893 4.54886 7.84346 4.44695 2.9628 5.07225 2.86377 10.3651 5.27764 11.4691 3.75562 3.3291 3.27443 8.483 12.5869 6.1482 6.06056 6.10938 12.0584 5.98652 5.48457 4.33941 4.28006 10.4839 5.55739 4.92631
threshold=1.0000000180025095e-35 1.0000000180025095e-35 0.46709956709956718 0.37740854656273792 0.27151675485008825 0.8211815315779577 0.7373223431782191 0.90231595787888708 0.629647822506048 0.41369034778102703 0.20497374111831948 0.20218742529285208 0.27530297605954573 0.26203457650368955 0.20478990922475312 0.15806129247168557 0.21244469026548676 0.21545092838196292 1.0000000180025095e-35 0.21030517470145957 0.2211032388663968 0.19152327523267745 0.15669693610618499 0.59770010942387553 0.54964999669736869 0.13228241254389025 0.5638839732860349 0.16331452220750795 0.26778683914510693 0.5700799115970886
decision_type=2 2 2 2 2 2 2 2 2 2 2 2 2 2 2 2 2 2 2 2 2 2 2 2 2 2 2 2 2 2
left_child=-1 2 -2 10 8 6 -4 -7 -5 -10 11 12 13 -3 -13 -14 19 18 -18 23 21 22 24 -12 -19 -25 27 28 -22 -28
right_child=1 3 5 4 -6 7 -8 -9 9 -11 16 14 15 -15 -16 -17 17 20 -20 -21 26 -23 -24 25 -26 -27 29 -29 -30 -31
leaf_value=-0.10026954230712717 -0.099203432945928469 0.020267159262277883 -0.10247530009897184 0.040446744867553508 0.080943627200898663 -0.10068824664932352 0.13183593549486913 0.013565694890125832 0.010701485339692104 -0.1992826876524843 -0.066998943693018786 0.071447456289657596 0.033321217127839024 -0.1429339141862471 0.18035487658872154 0.14738095352081201 -0.10773761567859011 0.16678127218800221 0.16104410642275502 -0.095593092400755031 0.073103527071096894 -0.08819068343371475 0.16664613754096944 -0.030535027393187187 -0.074152507239854795 0.095388532946711457 -0.092467131172296629 -0.012914225884447609 0.23112670656323675 0.014409083818918629
leaf_weight=375.15448004775681 93.008586063515395 125.2294237120077 2.0223416814114925 4.2229608818888646 35.430718515068293 6.0538324313238245 4.8663636432029307 7.7903530835174024 2.8329442366957664 1.9367966577410696 6.5271482747048202 8.6091233976185304 5.2207600660622102 4.4594264328479758 5.0085271149873725 5.019022710621357 2.2090654205530873 1.0625992398709083 8.2455310150980932 7.7951434049755326 5.4036930892616528 11.580215759575365 3.6258133053779593 4.1837472617626172 8.5238191075623018 7.9119018167257309 4.326476188376545 9.1801164448261243 3.7839093580842018 1364.8917526826262
leaf_count=145223 37426 1148 435 53 503 1274 70 473 25 25 67 87 39 21 26 38 59 15 39 74 82 58 16 59 117 38 50 45 33 7768
internal_value=0 0.010108 -0.081732 0.0164496 0.060397 -0.00335441 0.0630484 -0.0363957 -0.0205554 -0.0745645 0.0152315 0.0282177 0.0201125 0.0146554 0.111503 0.0892275 0.0138557 0.0145033 0.10425 -0.0210281 0.013839 -0.0351672 0.0113067 0.0101833 -0.0474464 0.051833 0.0147146 0.0626663 0.138185 0.0140714
internal_weight=0 1760.96 113.741 1647.22 44.4234 20.7329 6.88871 13.8442 8.9927 4.76974 1602.8 153.546 139.929 129.689 13.6177 10.2398 1449.25 1422.83 10.4546 26.4179 1412.38 24.7924 13.2122 18.6228 9.58642 12.0956 1387.59 18.3677 9.1876 1369.22
internal_count=195386 50163 39678 10485 606 2252 505 1747 103 50 9879 1359 1246 1169 113 77 8520 8282 98 238 8184 206 148 164 132 97 7978 160 115 7818
is_linear=0
shrinkage=0.1


Tree=22
num_leaves=31
num_cat=0
split_feature=0 2 3 7 3 4 3 6 7 7 7 6 3 6 3 7 4 7 3 6 3 7 6 7 6 6 3 7 4 4
split_gain=340.12 89.1932 17.4743 7.91122 5.29476 3.89562 3.57186 6.71245 6.17657 10.2876 8.99228 23.2787 9.07129 6.32412 6.85071 13.6022 8.76148 8.70236 6.55345 6.99787 5.86866 7.31265 15.0413 15.521 10.9381 6.33542 10.2212 7.13353 5.96326 12.5138
threshold=1.0000000180025095e-35 1.0000000180025095e-35 0.58305739514348798 0.37331185112256154 0.31751394251394255 0.25463121783876508 0.4651970284237727 0.61916514897948083 0.20860217533968992 0.20529123373547242 0.23507970325390112 0.85598921602289824 0.65485893416927909 0.83919748926760429 0.56430934656741127 0.19446201084733508 0.37294861447403826 0.177919863853644 0.54778212654924996 0.65068453448535812 0.4728501228501229 0.26361405768878982 0.687807072402708 0.268677566762695 0.6777670230973053 0.687807072402708 0.52283152627189333 0.24444343752732464 0.53073822121441172 0.39547661640684906
decision_type=2 2 2 2 2 2 2 2 2 2 2 2 2 2 2 2 2 2 2 2 2 2 2 2 2 2 2 2 2 2
left_child=-1 2 -2 6 5 -5 -3 -8 9 13 11 -10 20 14 15 16 18 -16 19 -9 -12 24 -23 -24 -22 -26 27 -27 29 -28
right_child=1 3 -4 4 -6 -7 7 8 10 -11 12 -13 -14 -15 17 -17 -18 -19 -20 -21 21 22 23 -25 25 26 28 -29 -30 -31
leaf_value=-0.10024384095257509 -0.10022205529322302 0.010440802504765763 0.0038668217664791886 -0.13063138577661573 0.068649519204230305 0.042679595239534185 0.12017462175307098 0.10834540756082034 0.0029941565766574874 0.14814040208361093 0.089939066734869469 -0.14835487549905274 0.069514377243569375 0.0040598840070202296 0.034478456004761564 -0.061143545296612638 0.077980283813720713 0.13823671421508452 0.10376062885625988 -0.0020828203309267638 0.077744570357224652 -0.042115849788181697 0.19075044484647863 0.032483050268794854 -0.15313191257275713 0.12220142296356887 -0.152279059123548 -0.020468844716469196 -0.17114118970323958 0.023660920574250226
leaf_weight=339.53643069998361 84.750927169574425 1102.6847139503807 19.919089655391872 2.4423366934061042 39.655093681067228 2.7655420377850533 6.6821727082133284 6.3627864047884932 69.486440196633339 7.2067776769399634 8.6030935570597631 11.903368420898913 31.744631394743919 80.711969397962093 18.844455689191818 15.131198167800902 39.221890613436699 14.155286148190497 8.1748551279306394 58.497706182301044 8.6219852864742261 23.323491536080837 7.2113599032163611 44.024764604866505 4.8723387569189063 5.4971005618572226 6.7584173083305421 9.668780714273451 5.029940962791442 10.060048833489416
leaf_count=145223 38340 7539 1338 24 580 28 39 27 292 30 40 61 199 362 81 62 164 59 34 253 35 122 31 236 20 25 30 43 23 46
internal_value=0 0.00910101 -0.0804136 0.0147818 0.0561998 -0.038598 0.0136237 0.0206179 0.0192743 0.0304097 0.00807118 -0.0191408 0.0214603 0.0268905 0.0383796 0.0278607 0.0398576 0.0789857 0.0193847 0.00875014 0.0100483 0.00455289 0.0244548 0.0547588 -0.0248258 -0.045939 -0.0318288 0.0312441 -0.0756103 -0.0470397
internal_weight=0 1754.01 104.67 1649.34 44.863 5.20788 1604.48 501.795 495.113 248.307 246.806 81.3898 165.416 241.1 160.388 127.388 112.257 32.9997 73.0353 64.8605 133.671 125.068 74.5596 51.2361 50.5086 41.8866 37.0143 15.1659 21.8484 16.8185
internal_count=195386 50163 39678 10485 632 52 9853 2314 2275 1072 1203 353 850 1042 680 540 478 140 314 280 651 611 389 267 222 187 167 68 99 76
is_linear=0
shrinkage=0.1


Tree=23
num_leaves=31
num_cat=0
split_feature=0 2 3 7 4 7 3 7 7 7 7 5 7 3 4 4 4 3 1 7 7 7 4 7 3 7 3 7 5 7
split_gain=307.2 77.4232 17.038 7.1852 4.38445 5.94095 3.3357 4.33001 4.94663 4.7052 9.08112 5.49327 10.8611 6.79966 5.86183 5.45416 8.12682 9.83294 7.33194 5.60014 5.1578 4.91455 6.29828 5.56105 4.7555 4.53023 6.97978 4.44409 4.12779 5.9521
threshold=1.0000000180025095e-35 1.0000000180025095e-35 0.58305739514348798 0.42183522084560948 0.31923833363132492 0.51439342782652397 0.4651970284237727 0.076056496367651938 0.29714007396874703 0.20860217533968992 0.20529123373547242 0.59471109040074566 0.22683587481006146 0.71964912280701765 0.18379075768238332 0.55603864734299535 0.45601135190918479 0.54778212654924996 1.0000000180025095e-35 0.19446201084733508 0.18965542710387631 0.16213108909036369 0.59471109040074566 0.15258834174599706 0.52283152627189333 0.19245609297501778 0.48089094449853947 0.25450123587679113 0.4377976190476191 0.20117853806267097
decision_type=2 2 2 2 2 2 2 2 2 2 2 2 2 2 2 2 2 2 2 2 2 2 2 2 2 2 2 2 2 2
left_child=-1 2 -2 6 5 -5 28 -8 9 10 15 14 -13 -14 -11 16 17 18 -9 24 -19 23 -23 -17 -18 -20 -27 -15 -3 -30
right_child=1 3 -4 4 -6 -7 7 8 -10 11 -12 12 13 27 -16 21 19 20 25 -21 -22 22 -24 -25 -26 26 -28 -29 29 -31
leaf_value=-0.10022059508641415 -0.10020088212603612 0.01071380217613614 0.0034682573962286261 0.047311808796808595 0.094392287798637772 -0.18947728091987445 0.055971327835205358 -0.10985757611113381 0.051512791994674095 -0.11831717484045837 0.13314740457145965 -0.16570012979263307 -0.095281563361084648 0.12484219300044302 0.01080076149505528 -0.015619021150330559 0.14278689879503967 0.035493653776175381 0.016540223226428008 -0.019041594589247077 0.11044616644169258 -0.072647219205432184 0.062861250088664181 -0.1362287103522877 0.055707771763987557 -0.14090804959112438 0.0028776374111986092 -0.015494412958409733 0.0065423962154050486 -0.068609128587618903
leaf_weight=307.29289553151466 76.701192304957658 1072.5116186030209 19.983732225373387 4.997132912278178 17.183761704713106 1.3447028137743471 30.159402720630169 5.7211677432060233 38.012477094307542 3.5799513384699813 7.4017314016818991 5.5313942208886173 4.873758725821971 4.3021500036120397 197.10873679816723 12.924991935491564 11.137052595615392 34.14001776278019 78.44176472723484 5.3205903321504584 12.558247208595274 4.8246231377124813 11.865452989935873 5.4285210818052283 14.354919865727423 4.9269002974033347 10.725488126277922 4.7457191348075867 30.089619554579258 16.219894006848335
leaf_count=145223 38340 7436 1338 82 322 21 144 25 318 17 31 29 26 34 868 66 46 139 326 22 51 20 60 25 59 21 44 35 138 80
internal_value=0 0.00820135 -0.0787736 0.0132965 0.0681661 -0.0028962 0.0125031 0.0192224 0.0169033 0.0139127 0.0242635 0.00357942 -0.0471585 -5.90191e-05 0.00849751 0.0204685 0.0275927 0.0177753 5.56511e-05 0.0742747 0.0556501 -0.015581 0.0236896 -0.0512924 0.0937513 0.00673866 -0.0423818 0.0512339 0.00945165 -0.0197794
internal_weight=0 1747.12 96.6849 1650.43 23.5256 6.34184 1626.91 508.085 477.926 439.913 219.771 220.142 19.453 13.9216 200.689 212.37 177.326 146.514 99.8153 30.8126 46.6983 35.0436 16.6901 18.3535 25.492 94.0942 15.6524 9.04787 1118.82 46.3095
internal_count=195386 50163 39678 10485 425 103 10060 2406 2262 1944 935 1009 124 95 885 904 733 606 416 127 190 171 80 91 105 391 65 69 7654 218
is_linear=0
shrinkage=0.1


Tree=24
num_leaves=31
num_cat=0
split_feature=0 2 3 3 6 6 6 6 6 3 4 4 3 3 6 3 4 6 4 6 6 3 3 4 5 3 3 6 6 3
split_gain=277.591 67.2275 16.593 3.33394 5.86243 4.91248 4.46618 6.18061 4.44432 8.03581 8.52945 5.16058 4.2697 4.51179 4.22238 4.07713 8.69402 5.54518 4.57939 4.02471 3.94892 3.62222 7.74896 5.54027 9.45944 11.2989 8.46773 8.04645 7.9387 7.84702
threshold=1.0000000180025095e-35 1.0000000180025095e-35 0.58305739514348798 0.4651970284237727 0.61916514897948083 0.63019160604399926 0.65845517237177975 0.68419680826397256 0.71579405650372407 0.52283152627189333 0.27511467889908264 0.25463121783876508 0.56430934656741127 0.58305739514348798 0.67119822837220433 0.51234756097560985 0.34391801075268824 0.7373223431782191 0.36240942028985518 0.86963411926826573 0.82857780194297737 0.35566239316239323 0.34729532163742699 0.24575783721599084 0.23348909657320874 0.22961896322552064 0.30492129389379002 0.59666090069063549 0.62545595874970294 0.29738282586383857
decision_type=2 2 2 2 2 2 2 2 2 2 2 2 2 2 2 2 2 2 2 2 2 2 2 2 2 2 2 2 2 2
left_child=-1 2 -2 14 -5 -6 -7 -8 9 10 -9 -11 -13 -14 21 16 17 -10 -18 -16 -19 22 23 24 -3 -26 29 -28 -29 -25
right_child=1 3 -4 4 5 6 7 8 15 11 -12 12 13 -15 19 -17 18 20 -20 -21 -22 -23 -24 26 25 -27 27 28 -30 -31
leaf_value=-0.1001995688522913 -0.10018172583516781 0.014561114227302894 0.0031118737284892908 0.11244362697541482 -0.083371955491087779 0.061311625360423928 -0.010883686084473725 0.084892931873500208 0.071285386735754477 0.0020740923475874545 -0.009546498302007253 0.055946274759826525 0.20611912930541734 0.089299546903213442 -0.00036929602292561721 0.0077949114417297004 0.13279880006503392 -0.097692507061996087 0.043207800969556273 0.084830715533447343 0.0011875111098753749 0.022728816497539855 -0.041800665421755472 -0.0057158074354714209 -0.044483504299543813 0.10769369944859114 0.10896861006687178 -0.030985585600408497 0.03199630113878859 -0.074133128008537622
leaf_weight=278.1054931160761 69.414702490204945 164.68324255943298 20.041876749601215 6.5697176977992049 4.7944437563419333 23.07794638723135 71.433199021965265 12.327513396739958 4.8955830037593868 10.14802026003599 42.652235232293606 25.98450542986393 4.5136088058352497 12.358166385442017 403.60745719820261 224.11444759741426 6.3449056372046462 8.4056286849081534 56.597749814391136 5.6216404289007178 7.7745350226759902 268.17009417340159 29.160104548558593 103.72947560995817 6.1634093746542957 23.413975156843662 9.629994083195923 28.62735753133893 66.510559432208538 19.995262697339058
leaf_count=145223 38340 1761 1338 46 22 117 344 58 22 44 193 118 22 61 2179 1294 32 38 266 30 35 1430 179 1139 96 176 61 174 411 137
internal_value=0 0.00739306 -0.0770398 0.0119671 0.0185761 0.0173797 0.0183257 0.0162909 0.0209559 0.0384135 0.0116286 0.0661966 0.0813803 0.120552 0.00891221 0.014838 0.0336249 -0.0219661 0.052239 0.000801109 -0.0501809 0.0135218 0.00805827 0.0114974 0.0239129 0.0759826 0.000941888 0.0218619 0.0130448 -0.0167728
internal_weight=0 1740.76 89.4566 1651.3 521.992 515.422 510.628 487.55 416.117 107.984 54.9797 53.0043 42.8563 16.8718 1129.31 308.133 84.0184 21.0757 62.9427 409.229 16.1802 720.083 451.913 422.753 194.261 29.5774 228.493 104.768 95.1379 123.725
internal_count=195386 50163 39678 10485 2712 2666 2644 2527 2183 496 251 245 201 83 7773 1687 393 95 298 2209 73 5564 4134 3955 2033 272 1922 646 585 1276
is_linear=0
shrinkage=0.1


Tree=25
num_leaves=31
num_cat=0
split_feature=0 2 3 7 4 3 3 4 7 7 3 7 3 7 4 4 1 5 7 7 7 7 7 3 3 7 3 3 3 3
split_gain=252.714 62.447 13.2302 6.73705 5.75307 3.3369 6.73393 2.9563 5.89971 9.07818 6.05673 4.22245 6.43331 7.2278 3.90864 4.38892 10.639 4.21656 5.04772 11.001 4.9979 3.59541 11.3022 7.67913 6.59703 5.86894 11.7669 4.68213 4.50671 4.78531
threshold=1.0000000180025095e-35 1.0000000180025095e-35 0.58305739514348798 0.37740854656273792 0.27151675485008825 0.48993107176645495 0.31751394251394255 0.20960061443932418 0.27530297605954573 0.25450123587679113 0.54778212654924996 0.33508701023803228 0.41222143195827415 0.34901749692818107 0.21186061381074175 0.21545092838196292 1.0000000180025095e-35 0.2211032388663968 0.19152327523267745 0.15669693610618499 0.076056496367651938 0.23695491376632163 0.23943176888547349 0.44198286413708693 0.84136662795199391 0.218602822410184 0.58305739514348798 0.43169856459330153 0.56430934656741127 0.43169856459330153
decision_type=2 2 2 2 2 2 2 2 2 2 2 2 2 2 2 2 2 2 2 2 2 2 2 2 2 2 2 2 2 2
left_child=-1 2 -2 7 5 6 -5 8 9 10 -3 14 13 -13 -9 16 -16 18 19 20 -17 25 23 -23 -24 27 28 -19 29 -27
right_child=1 3 -4 4 -6 -7 -8 11 -10 -11 -12 12 -14 -15 15 17 -18 21 -20 -21 -22 22 24 -25 -26 26 -28 -29 -30 -31
leaf_value=-0.1001804786625798 -0.10016440693616696 0.019743673385611775 -0.0068737386033292163 -0.08189741967822628 0.07389024234327847 -0.12665300434429955 0.11201724481299424 -0.050708930223659111 0.093578243112153861 -0.099811479713392826 0.1545719968211749 -0.25395821705662019 0.010614633467561006 -0.039883576339968294 -0.10671045036360836 0.0025592275791780032 0.12111216512053963 0.0045462512319706209 -0.082182320164170208 0.16212425851933676 -0.13566308059097218 0.16202872083122513 0.012685787746669631 0.02773629193288038 0.11292823751705335 0.013834396365738242 -0.093618793521865418 0.019138668121679511 0.08896461151470049 -0.027028025435558496
leaf_weight=252.00581892789342 62.982357539818622 145.12572836037725 20.038050307892263 3.5380733758211118 29.613005250692368 2.1167395133525133 3.6262129209935665 10.744156343862413 11.021708397194741 6.2903245091438285 3.4100645035505286 2.428357973694804 9.9384270720183832 4.499439649283886 2.6361696477979413 8.9805588871240669 9.2149096950888616 572.70494625717402 10.942095234990118 3.5203353911638251 3.6911646574735633 9.0101922601461428 292.39228709042072 8.0733193531632406 6.7159568667411795 60.184294149279594 15.666541010141371 356.91342256963253 5.2680954337120047 54.712595820426941
leaf_count=145412 38439 1319 1331 35 506 29 44 89 91 32 14 20 112 39 75 146 42 4096 54 15 20 39 1388 36 64 267 73 1566 22 236
internal_value=0 0.00698207 -0.0776475 0.0112326 0.0523592 -0.01634 0.0162527 0.0102416 0.0228882 0.017856 0.022839 0.0087933 -0.0409494 -0.114922 0.00937943 0.00983387 0.070435 0.00932408 -0.0297148 0.0057411 -0.0377037 0.0100908 0.0194549 0.0985649 0.0149366 0.00731178 -0.0121045 0.0101488 -0.00147702 -0.00562383
internal_weight=0 1736 83.0204 1652.98 38.894 9.28103 7.16429 1614.09 165.848 154.826 148.536 1448.24 16.8662 6.9278 1431.37 1420.63 11.8511 1408.78 27.1342 16.1921 12.6717 1381.64 316.192 17.0835 299.108 1065.45 135.832 929.618 120.165 114.897
internal_count=195651 50239 39770 10469 614 108 79 9855 1456 1365 1333 8399 171 59 8228 8139 117 8022 235 181 166 7787 1527 75 1452 6260 598 5662 525 503
is_linear=0
shrinkage=0.1


Tree=26
num_leaves=31
num_cat=0
split_feature=0 2 3 7 7 3 6 3 4 6 6 4 7 6 4 6 6 3 4 4 7 4 4 6 3 3 6 4 4 7
split_gain=228.36 54.2812 13.0235 6.00097 3.97223 8.0679 2.9931 4.85775 3.04161 2.78043 7.86868 6.89875 6.02191 7.20804 6.7598 6.73576 6.56109 5.38935 5.73398 4.86583 8.39754 6.22526 8.96191 5.69444 4.72184 5.60778 4.15511 5.51952 11.3875 4.01162
threshold=1.0000000180025095e-35 1.0000000180025095e-35 0.58305739514348798 0.42183522084560948 0.55302596980912999 0.50225225225225234 0.8211815315779577 0.84136662795199391 0.42933947772657455 0.63513794282595404 0.63201427610957384 0.23903424393997694 0.24725017926272522 0.60645744763034715 0.31751394251394255 0.62725099604460677 0.62199143064161222 0.39202437731849499 0.34873053125666742 0.32268272764393641 0.17524060332122532 0.2687369603594929 0.27602627257799678 0.56530081166780688 0.30655913978494626 0.29008882655446477 0.62725099604460677 0.25904139433551204 0.25294280570558103 0.23695491376632163
decision_type=2 2 2 2 2 2 2 2 2 2 2 2 2 2 2 2 2 2 2 2 2 2 2 2 2 2 2 2 2 2
left_child=-1 2 -2 9 -5 -6 8 -8 -4 10 12 -12 17 -14 15 -15 -16 18 19 21 -21 -3 -23 -24 25 -13 27 28 -19 -11
right_child=1 3 6 4 5 -7 7 -9 -10 29 11 24 13 14 16 -17 -18 26 -20 20 -22 22 23 -25 -26 -27 -28 -29 -30 -31
leaf_value=-0.10016327826996368 -0.10014873621760495 0.021889233101292576 -0.10140172428165482 0.08286559071826767 -0.26132023771919161 0.065391609019313096 -0.10081128201558875 0.024784671465249736 0.070827652025255108 0.0037098833730383122 -0.023194960016919199 0.10084302519615716 0.029527784992681529 -0.088646162605956563 0.10361752163879408 0.036931589464759045 -0.067935708330227274 0.07755583769927718 -0.047840791608459214 0.00056380006365174332 0.14548505716564539 -0.09063634651055924 0.12415069587724546 -0.0052199415351985136 0.1175980706222978 -0.13533347067636078 -0.0091934603616969351 0.11549306380282749 -0.11322602069620927 0.016975249241223633
leaf_weight=228.06145963026211 56.997256727539934 196.65446536429226 1.2218475081026579 17.465440962463621 1.0790146030485623 2.5236101560294628 6.0291684032417816 6.2946433424949646 6.3773493603803217 913.21284785587341 6.4233166985213783 2.3138299509882954 21.83616629242897 23.832816414535049 5.3635351285338384 5.2039602473378173 3.8150876984000206 12.836482774466281 14.528914377093313 8.3328744899481553 7.6868426799774161 12.401059694588183 3.6891701798886052 43.762971684336662 17.426183395087719 1.7777964286506174 8.5283098332583887 14.234268493950365 4.1369139254093161 303.81578508764505
leaf_count=145412 38439 2016 134 357 16 56 796 286 115 4958 48 35 142 136 33 30 22 62 89 72 34 127 26 351 92 16 39 64 19 1629
internal_value=0 0.00629443 -0.0758214 0.0101159 0.0631448 -0.0324612 -0.00622407 -0.0366605 0.0431355 0.00943122 0.0165019 0.0677509 0.0128002 -0.0163051 -0.0424939 -0.0661402 0.0323116 0.0181486 0.0133707 0.016634 0.0701023 0.0132947 -0.0149435 0.00483799 0.0948992 -0.00177478 0.0526649 0.0695694 0.0310567 0.00702141
internal_weight=0 1729.8 76.9203 1652.88 21.0681 3.60262 19.923 12.3238 7.5992 1631.81 414.785 27.9411 386.844 60.0516 38.2154 29.0368 9.17862 326.792 287.056 272.527 16.0197 256.508 59.8532 47.4521 21.5178 4.09163 39.736 31.2077 16.9734 1217.03
internal_count=195651 50239 39770 10469 429 72 1331 1082 249 10040 3453 191 3262 363 221 166 55 2899 2715 2626 106 2520 504 377 143 51 184 145 81 6587
is_linear=0
shrinkage=0.1


Tree=27
num_leaves=31
num_cat=0
split_feature=0 2 3 7 5 7 1 5 6 3 5 3 3 5 6 5 6 6 6 3 5 6 6 3 6 6 5 5 6 6
split_gain=206.362 47.3155 12.6283 5.35741 4.99376 2.72564 7.37232 8.55933 5.2745 8.40131 6.17038 5.11208 6.11367 5.39569 5.05544 4.93933 4.76555 4.22246 3.99998 7.4764 4.00042 6.74763 6.60455 4.03473 4.03114 3.92152 4.42957 7.6138 3.73264 5.99327
threshold=1.0000000180025095e-35 1.0000000180025095e-35 0.58305739514348798 0.37740854656273792 0.27164061942481987 0.076056496367651938 1.0000000180025095e-35 0.50926243567753005 0.65396920746093834 0.28621378621378629 0.15285947712418305 0.33981132075471704 0.31086759027935501 0.28018691588785055 0.52941018342821011 0.26198686371100166 0.58725265287033446 0.5061129183680696 0.53195713297580871 0.23642506142506145 0.16152751423149905 0.61860330254135576 0.59394357321208768 0.48993107176645495 0.55469007403757098 0.60426657724732913 0.2985592868988392 0.23903424393997694 0.56806481898574057 0.56307211987359063
decision_type=2 2 2 2 2 2 2 2 2 2 2 2 2 2 2 2 2 2 2 2 2 2 2 2 2 2 2 2 2 2
left_child=-1 2 -2 5 -5 6 7 17 10 -10 14 12 16 -13 -8 -14 -12 -3 19 -19 21 22 -20 24 -22 -18 27 -27 29 -26
right_child=1 3 -4 4 -6 -7 8 -9 9 -11 11 13 15 -15 -16 -17 25 18 20 -21 23 -23 -24 -25 28 26 -28 -29 -30 -31
leaf_value=-0.10014772102555941 -0.10013455993022394 -0.13396782186640477 -0.0059154276734924502 -0.015844323024543357 0.069350812446344889 0.0063325177533577887 0.07157527023331256 0.16054855842674881 -0.10745598135773922 0.024851267659035798 0.11565763846862119 0.068032441317773681 0.032205505527966881 0.19047273056146424 -0.075867012196758371 -0.12719914779749139 -0.031451150162279062 0.020880103048988005 0.027589373299563541 0.37354214637405031 -0.10532443789745155 -0.064193480536653039 0.20066301774300677 0.069786373054345471 -0.027240145062921186 0.010942466007827488 -0.0120566276786845 0.18663729821235739 -0.010464706846168965 0.19516728933602456
leaf_weight=206.38896997924894 51.580180345801637 2.3529715929180375 19.642758634407073 9.2808358464390022 26.59814216196537 1329.5296511668712 3.7876603677868825 3.3496258109807959 5.2160528488457194 60.071044996380806 12.889173269271849 8.9957503825426084 5.1412501707673055 5.9994956329464904 6.0240557715296745 3.1256466209888458 5.8136596903204945 2.2940696701407428 5.4316496439278108 0.81459702178835858 4.3121386729180804 3.5746373878791919 3.7114397082477808 6.6189134493470183 2.5372383240610352 4.6567215733230096 4.9240554496645919 5.2441951930522919 119.71325548365712 2.3190350383520126
leaf_count=145412 38439 36 1331 108 506 6249 22 16 42 290 91 46 36 32 33 20 59 67 67 10 114 69 37 31 66 45 56 53 2212 56
internal_value=0 0.00565698 -0.0741496 0.00909286 0.0473133 0.00824556 0.0170489 0.00240932 0.034479 0.0142807 0.0542787 0.0669304 0.0489591 0.11702 -0.0189492 -0.0280641 0.0679506 -0.0010375 0.00102943 0.113292 -0.00132512 0.0522999 0.0978449 -0.00635822 -0.0102687 0.0381568 0.0654538 0.104002 -0.00697826 0.0789669
internal_weight=0 1725.55 71.2229 1654.33 35.879 1618.45 288.918 157.03 131.889 65.2871 66.6017 56.7899 41.7947 14.9952 9.81172 8.2669 33.5278 153.68 151.327 3.10867 148.218 12.7177 9.14309 135.501 128.882 20.6386 14.825 9.90092 124.57 4.85627
internal_count=195651 50239 39770 10469 614 9855 3606 2781 825 332 493 438 360 78 55 56 304 2765 2729 77 2652 173 104 2479 2448 213 154 98 2334 122
is_linear=0
shrinkage=0.1


Tree=28
num_leaves=31
num_cat=0
split_feature=0 2 3 7 4 3 4 3 5 3 4 4 3 5 3 4 3 4 3 7 4 3 3 5 7 4 3 3 7 7
split_gain=186.493 41.0723 12.3741 4.79315 3.69938 4.20689 2.87112 2.22574 5.11677 4.80112 6.64504 3.80167 3.22565 3.70669 2.3922 4.39093 3.27583 3.41345 3.25061 4.8881 3.85167 2.9265 2.28648 4.04077 4.81473 3.22641 6.16837 5.88815 5.09524 9.64137
threshold=1.0000000180025095e-35 1.0000000180025095e-35 0.58305739514348798 0.42183522084560948 0.31923833363132492 0.48993107176645495 0.29738282586383857 0.13655788655788659 0.13104143492769751 0.12541390728476823 0.10699884792626725 0.13343009192065799 0.15073929115025006 0.14300115207373279 0.19074371321562336 0.17337186897880544 0.16264534883720935 0.2041169408940047 0.19707639778062316 0.086705988502634765 0.22476265133699155 0.17262664963814392 0.22961896322552064 0.19248412138320395 0.23785234785203793 0.20960061443932418 0.29008882655446477 0.35827114427860701 0.27530297605954573 0.23695491376632163
decision_type=2 2 2 2 2 2 2 2 2 2 2 2 2 2 2 2 2 2 2 2 2 2 2 2 2 2 2 2 2 2
left_child=-1 2 -2 7 5 6 -5 9 -9 10 -3 -12 -10 -14 15 21 17 -17 19 20 -16 -15 23 -20 -25 26 -24 -28 29 -29
right_child=1 3 -4 4 -6 -7 -8 8 12 -11 11 -13 13 14 18 16 -18 -19 22 -21 -22 -23 25 24 -26 -27 27 28 -30 -31
leaf_value=-0.10013365333960378 -0.100121741943831 0.081329869077079148 -0.0053513917424820034 0.10748086361621667 0.088782563136678719 -0.11567582133623876 -0.085310823599971219 -0.10000109979170729 -0.076429598844268309 0.13355191108944039 -0.1375382662986919 0.0055947041286630575 0.074626166392372004 -0.015235201436744379 0.29011023627649729 -0.025250524700360256 -0.067631673899354608 0.19935908262158553 -0.089326185072149678 0.0087799609135955341 0.050765640812903579 0.13720660034914353 0.06855837290902482 0.007408833470507737 -0.14245706422945603 0.0069462495362895508 -0.027605996426449227 0.043689090737458705 0.12153077617517367 -0.074011171038852908
leaf_weight=186.77336654439569 46.677349169971421 7.5913018733263034 19.547083742916584 2.9105904027819665 12.806665416806934 2.218478100374341 1.0515308901667593 4.4421491790562859 4.569260222837328 4.3621697463095179 3.0362446308135986 4.7723062261939049 8.2356322333216649 2.6310652736574438 1.474374154582619 2.1765208393335373 14.769556948915122 0.98182510584592808 6.3116824366152278 4.2095516324043274 1.2360267657786606 2.4154687561094761 24.994704071432352 32.739471904933453 2.293911211192607 1428.1305592805147 25.685678945854306 34.494971290230751 5.5739595443010321 8.7186336219310743
leaf_count=145412 38439 48 1331 49 321 35 24 60 70 36 14 38 72 38 24 37 268 32 91 20 27 28 236 440 12 7940 230 185 54 40
internal_value=0 0.00507374 -0.0721489 0.0081641 0.0581184 -0.00541994 0.0563147 0.00758428 0.00717638 0.0409409 0.0147079 -0.0500605 0.00747179 0.00771034 0.00736566 -0.02467 -0.0478646 0.0445732 0.0078327 0.0762199 0.180962 0.0577294 0.00753108 -0.0156735 -0.00240407 0.00815912 0.0255731 0.0111464 0.0315487 0.0199423
internal_weight=0 1721.06 66.2244 1654.83 18.9873 6.1806 3.96212 1635.85 1616.09 19.762 15.3999 7.80855 1611.64 1607.07 1598.84 22.9744 17.9279 3.15835 1575.86 6.91995 2.7104 5.04653 1568.94 41.3451 35.0334 1527.6 99.4679 74.4732 48.7876 43.2136
internal_count=195651 50239 39770 10469 429 108 73 10040 9904 136 100 52 9844 9774 9702 403 337 69 9299 71 51 66 9228 543 452 8685 745 509 279 225
is_linear=0
shrinkage=0.1


Tree=29
num_leaves=31
num_cat=0
split_feature=0 2 3 6 3 4 4 3 3 4 3 6 6 3 6 3 3 4 4 5 6 4 6 6 6 4 5 6 3 3
split_gain=168.611 35.6356 12.0926 2.47714 4.4844 2.52312 2.548 1.97637 11.6392 6.69904 6.36991 4.92704 7.17797 5.61724 5.22227 7.82781 10.6676 6.25324 9.10944 8.64007 6.00876 9.17503 4.93761 5.90922 4.78209 4.56645 9.41193 4.46712 4.395 4.15511
